{"learner":{"attributes":{"scikit_learn":"{\"_estimator_type\": \"regressor\"}"},"feature_names":["MLUT4_FT-957","MLUT4_FT-956","MLUT4_FIC-231C","MLUT4_FIC-231B","MLUT4_PDT-232","MLUT4_PIC-233","MLUT4_TE-252D","MLUT4_FIC-231A","MLUT4_AIA792101B","MLUT4_AT-232A","MLUT4_RT-091","MLUT4_IT-E7925B","MLUT4_FQ-239","MLUT4_TE-251H","MLUT4_FT-792020","MLUT4_IT-E7925A","MLUT4_FIC-233","MLUT4_FQ-205","MLUT4_ZT-232","MLUT4_FT-232","MLUT4_PT-231","MLUT4_AIA792101A","MLUT4_FT-V004","MLUT4_TE-252I","MLUT4_FIQ-2BTCF","prev_target"],"feature_types":["float","float","float","float","float","float","float","float","float","float","float","float","float","float","float","float","float","float","float","float","float","float","float","float","float","float"],"gradient_booster":{"model":{"gbtree_model_param":{"num_parallel_tree":"1","num_trees":"900"},"iteration_indptr":[0,1,2,3,4,5,6,7,8,9,10,11,12,13,14,15,16,17,18,19,20,21,22,23,24,25,26,27,28,29,30,31,32,33,34,35,36,37,38,39,40,41,42,43,44,45,46,47,48,49,50,51,52,53,54,55,56,57,58,59,60,61,62,63,64,65,66,67,68,69,70,71,72,73,74,75,76,77,78,79,80,81,82,83,84,85,86,87,88,89,90,91,92,93,94,95,96,97,98,99,100,101,102,103,104,105,106,107,108,109,110,111,112,113,114,115,116,117,118,119,120,121,122,123,124,125,126,127,128,129,130,131,132,133,134,135,136,137,138,139,140,141,142,143,144,145,146,147,148,149,150,151,152,153,154,155,156,157,158,159,160,161,162,163,164,165,166,167,168,169,170,171,172,173,174,175,176,177,178,179,180,181,182,183,184,185,186,187,188,189,190,191,192,193,194,195,196,197,198,199,200,201,202,203,204,205,206,207,208,209,210,211,212,213,214,215,216,217,218,219,220,221,222,223,224,225,226,227,228,229,230,231,232,233,234,235,236,237,238,239,240,241,242,243,244,245,246,247,248,249,250,251,252,253,254,255,256,257,258,259,260,261,262,263,264,265,266,267,268,269,270,271,272,273,274,275,276,277,278,279,280,281,282,283,284,285,286,287,288,289,290,291,292,293,294,295,296,297,298,299,300,301,302,303,304,305,306,307,308,309,310,311,312,313,314,315,316,317,318,319,320,321,322,323,324,325,326,327,328,329,330,331,332,333,334,335,336,337,338,339,340,341,342,343,344,345,346,347,348,349,350,351,352,353,354,355,356,357,358,359,360,361,362,363,364,365,366,367,368,369,370,371,372,373,374,375,376,377,378,379,380,381,382,383,384,385,386,387,388,389,390,391,392,393,394,395,396,397,398,399,400,401,402,403,404,405,406,407,408,409,410,411,412,413,414,415,416,417,418,419,420,421,422,423,424,425,426,427,428,429,430,431,432,433,434,435,436,437,438,439,440,441,442,443,444,445,446,447,448,449,450,451,452,453,454,455,456,457,458,459,460,461,462,463,464,465,466,467,468,469,470,471,472,473,474,475,476,477,478,479,480,481,482,483,484,485,486,487,488,489,490,491,492,493,494,495,496,497,498,499,500,501,502,503,504,505,506,507,508,509,510,511,512,513,514,515,516,517,518,519,520,521,522,523,524,525,526,527,528,529,530,531,532,533,534,535,536,537,538,539,540,541,542,543,544,545,546,547,548,549,550,551,552,553,554,555,556,557,558,559,560,561,562,563,564,565,566,567,568,569,570,571,572,573,574,575,576,577,578,579,580,581,582,583,584,585,586,587,588,589,590,591,592,593,594,595,596,597,598,599,600,601,602,603,604,605,606,607,608,609,610,611,612,613,614,615,616,617,618,619,620,621,622,623,624,625,626,627,628,629,630,631,632,633,634,635,636,637,638,639,640,641,642,643,644,645,646,647,648,649,650,651,652,653,654,655,656,657,658,659,660,661,662,663,664,665,666,667,668,669,670,671,672,673,674,675,676,677,678,679,680,681,682,683,684,685,686,687,688,689,690,691,692,693,694,695,696,697,698,699,700,701,702,703,704,705,706,707,708,709,710,711,712,713,714,715,716,717,718,719,720,721,722,723,724,725,726,727,728,729,730,731,732,733,734,735,736,737,738,739,740,741,742,743,744,745,746,747,748,749,750,751,752,753,754,755,756,757,758,759,760,761,762,763,764,765,766,767,768,769,770,771,772,773,774,775,776,777,778,779,780,781,782,783,784,785,786,787,788,789,790,791,792,793,794,795,796,797,798,799,800,801,802,803,804,805,806,807,808,809,810,811,812,813,814,815,816,817,818,819,820,821,822,823,824,825,826,827,828,829,830,831,832,833,834,835,836,837,838,839,840,841,842,843,844,845,846,847,848,849,850,851,852,853,854,855,856,857,858,859,860,861,862,863,864,865,866,867,868,869,870,871,872,873,874,875,876,877,878,879,880,881,882,883,884,885,886,887,888,889,890,891,892,893,894,895,896,897,898,899,900],"tree_info":[0,0,0,0,0,0,0,0,0,0,0,0,0,0,0,0,0,0,0,0,0,0,0,0,0,0,0,0,0,0,0,0,0,0,0,0,0,0,0,0,0,0,0,0,0,0,0,0,0,0,0,0,0,0,0,0,0,0,0,0,0,0,0,0,0,0,0,0,0,0,0,0,0,0,0,0,0,0,0,0,0,0,0,0,0,0,0,0,0,0,0,0,0,0,0,0,0,0,0,0,0,0,0,0,0,0,0,0,0,0,0,0,0,0,0,0,0,0,0,0,0,0,0,0,0,0,0,0,0,0,0,0,0,0,0,0,0,0,0,0,0,0,0,0,0,0,0,0,0,0,0,0,0,0,0,0,0,0,0,0,0,0,0,0,0,0,0,0,0,0,0,0,0,0,0,0,0,0,0,0,0,0,0,0,0,0,0,0,0,0,0,0,0,0,0,0,0,0,0,0,0,0,0,0,0,0,0,0,0,0,0,0,0,0,0,0,0,0,0,0,0,0,0,0,0,0,0,0,0,0,0,0,0,0,0,0,0,0,0,0,0,0,0,0,0,0,0,0,0,0,0,0,0,0,0,0,0,0,0,0,0,0,0,0,0,0,0,0,0,0,0,0,0,0,0,0,0,0,0,0,0,0,0,0,0,0,0,0,0,0,0,0,0,0,0,0,0,0,0,0,0,0,0,0,0,0,0,0,0,0,0,0,0,0,0,0,0,0,0,0,0,0,0,0,0,0,0,0,0,0,0,0,0,0,0,0,0,0,0,0,0,0,0,0,0,0,0,0,0,0,0,0,0,0,0,0,0,0,0,0,0,0,0,0,0,0,0,0,0,0,0,0,0,0,0,0,0,0,0,0,0,0,0,0,0,0,0,0,0,0,0,0,0,0,0,0,0,0,0,0,0,0,0,0,0,0,0,0,0,0,0,0,0,0,0,0,0,0,0,0,0,0,0,0,0,0,0,0,0,0,0,0,0,0,0,0,0,0,0,0,0,0,0,0,0,0,0,0,0,0,0,0,0,0,0,0,0,0,0,0,0,0,0,0,0,0,0,0,0,0,0,0,0,0,0,0,0,0,0,0,0,0,0,0,0,0,0,0,0,0,0,0,0,0,0,0,0,0,0,0,0,0,0,0,0,0,0,0,0,0,0,0,0,0,0,0,0,0,0,0,0,0,0,0,0,0,0,0,0,0,0,0,0,0,0,0,0,0,0,0,0,0,0,0,0,0,0,0,0,0,0,0,0,0,0,0,0,0,0,0,0,0,0,0,0,0,0,0,0,0,0,0,0,0,0,0,0,0,0,0,0,0,0,0,0,0,0,0,0,0,0,0,0,0,0,0,0,0,0,0,0,0,0,0,0,0,0,0,0,0,0,0,0,0,0,0,0,0,0,0,0,0,0,0,0,0,0,0,0,0,0,0,0,0,0,0,0,0,0,0,0,0,0,0,0,0,0,0,0,0,0,0,0,0,0,0,0,0,0,0,0,0,0,0,0,0,0,0,0,0,0,0,0,0,0,0,0,0,0,0,0,0,0,0,0,0,0,0,0,0,0,0,0,0,0,0,0,0,0,0,0,0,0,0,0,0,0,0,0,0,0,0,0,0,0,0,0,0,0,0,0,0,0,0,0,0,0,0,0,0,0,0,0,0,0,0,0,0,0,0,0,0,0,0,0,0,0,0,0,0,0,0,0,0,0,0,0,0,0,0,0,0,0,0,0,0,0,0,0,0,0,0,0,0,0,0,0,0,0,0,0,0,0,0,0,0,0,0,0,0,0,0,0,0,0,0,0,0,0,0,0,0,0,0,0,0,0,0,0,0,0,0,0,0,0,0,0,0,0,0,0,0,0,0,0,0,0,0,0,0,0,0,0,0,0,0,0,0,0,0,0,0,0,0,0,0,0,0,0,0,0,0,0,0,0,0,0,0,0,0,0,0,0,0,0,0,0,0,0,0,0,0,0,0,0,0,0,0,0,0,0,0,0,0,0,0,0,0,0,0,0,0,0,0,0,0,0,0,0,0],"trees":[{"base_weights":[-5.10486E-4,-3.0196324E-2,9.5099896E-2,-7.417034E-2,-9.025366E-3,1.1933723E-3,3.1207257E-3,-2.328943E-3,-4.3371727E-4,-2.0585287E-2,8.708315E-4,-8.995951E-3,-4.4386107E-2,-5.5808015E-4,-6.5593846E-4,-3.8211598E-4,-1.4797013E-3,6.659898E-3,-3.1589414E-4,1.0704386E-2,-1.1324129E-4,9.217703E-5,3.4386216E-4],"categories":[],"categories_nodes":[],"categories_segments":[],"categories_sizes":[],"default_left":[0,0,0,0,0,0,0,0,0,0,0,0,0,0,0,0,0,0,0,0,0,0,0],"id":0,"left_children":[1,3,5,7,9,-1,-1,-1,-1,11,-1,13,15,17,-1,-1,-1,19,-1,21,-1,-1,-1],"loss_changes":[1.2861879E-1,3.1510875E-2,4.4657663E-3,4.5751147E-3,1.1991519E-2,0E0,0E0,0E0,0E0,5.0070835E-3,0E0,1.744648E-3,8.819131E-4,8.595287E-4,0E0,0E0,0E0,3.327376E-4,0E0,1.9473897E-5,0E0,0E0,0E0],"parents":[2147483647,0,0,1,1,2,2,3,3,4,4,9,9,11,11,12,12,13,13,17,17,19,19],"right_children":[2,4,6,8,10,-1,-1,-1,-1,12,-1,14,16,18,-1,-1,-1,20,-1,22,-1,-1,-1],"split_conditions":[1.1694933E1,9.609801E2,1.2418689E1,1.2412385E1,9.626E2,1.1933723E-3,3.1207257E-3,-2.328943E-3,-4.3371727E-4,4.3727878E2,8.708315E-4,9.749853E1,9.726343E1,2.0502095E2,-6.5593846E-4,-3.8211598E-4,-1.4797013E-3,3.6017651E3,-3.1589414E-4,1.2415537E1,-1.1324129E-4,9.217703E-5,3.4386216E-4],"split_indices":[3,13,2,2,13,0,0,0,0,12,0,4,4,16,0,0,0,0,0,2,0,0,0],"split_type":[0,0,0,0,0,0,0,0,0,0,0,0,0,0,0,0,0,0,0,0,0,0,0],"sum_hessian":[4.330408E1,3.3566326E1,9.737755E0,1.0094898E1,2.3471428E1,3.1704082E0,6.567347E0,8.389796E0,1.705102E0,1.86E1,4.8714285E0,1.3435715E1,5.1642857E0,9.133674E0,4.302041E0,1.6785715E0,3.4857142E0,5.6857142E0,3.4479592E0,4.1265306E0,1.5591836E0,1.2653061E0,2.8612247E0],"tree_param":{"num_deleted":"0","num_feature":"26","num_nodes":"23","size_leaf_vector":"1"}},{"base_weights":[-7.442194E-4,-4.36878E-2,7.173555E-2,-7.889265E-2,-1.8874424E-2,2.9976883E-3,3.3848166E-2,-2.4100193E-3,-9.994204E-4,-2.3679988E-2,2.2451694E-3,1.1399678E-3,2.8398665E-4,-2.590601E-2,-1.7214005E-4,2.3520616E-4,-1.6658072E-4,-1.979677E-4,-7.8169396E-4],"categories":[],"categories_nodes":[],"categories_segments":[],"categories_sizes":[],"default_left":[0,0,0,0,0,0,0,0,0,0,0,0,0,0,0,0,0,0,0],"id":1,"left_children":[1,3,5,7,9,-1,11,-1,-1,13,15,-1,-1,17,-1,-1,-1,-1,-1],"loss_changes":[1.3170417E-1,2.1712642E-2,1.7451309E-2,2.3590028E-4,1.7677513E-3,0E0,1.0615252E-3,0E0,0E0,3.8121594E-4,2.5398983E-4,0E0,0E0,2.5645178E-4,0E0,0E0,0E0,0E0,0E0],"parents":[2147483647,0,0,1,1,2,2,3,3,4,4,6,6,9,9,10,10,13,13],"right_children":[2,4,6,8,10,-1,12,-1,-1,14,16,-1,-1,18,-1,-1,-1,-1,-1],"split_conditions":[7.578612E-1,6.9851327E-1,9.605785E2,6.7633915E-1,7.394356E-1,2.9976883E-3,1.2500916E1,-2.4100193E-3,-9.994204E-4,2.266134E0,1.5413431E1,1.1399678E-3,2.8398665E-4,1.240643E1,-1.7214005E-4,2.3520616E-4,-1.6658072E-4,-1.979677E-4,-7.8169396E-4],"split_indices":[25,25,13,25,25,0,2,0,0,10,11,0,0,2,0,0,0,0,0],"split_type":[0,0,0,0,0,0,0,0,0,0,0,0,0,0,0,0,0,0,0],"sum_hessian":[4.0307144E1,2.5560204E1,1.4746939E1,9.6663265E0,1.5893878E1,6.6867347E0,8.0602045E0,7.437755E0,2.2285714E0,1.284898E1,3.044898E0,5.6938777E0,2.3663266E0,1.0977551E1,1.8714285E0,1.7244898E0,1.3204081E0,1.494898E0,9.482653E0],"tree_param":{"num_deleted":"0","num_feature":"26","num_nodes":"19","size_leaf_vector":"1"}},{"base_weights":[2.5965178E-3,-4.0163413E-2,7.033974E-2,-6.404818E-2,-1.232856E-2,3.4191966E-2,3.019032E-3,-2.210588E-3,-1.150073E-3,-1.7117873E-2,1.3105749E-4,1.8499357E-4,3.782961E-2,-5.3140434E-4,-1.4044801E-4,1.1753843E-3,4.187255E-4],"categories":[],"categories_nodes":[],"categories_segments":[],"categories_sizes":[],"default_left":[0,0,0,0,0,0,0,0,0,0,0,0,0,0,0,0,0],"id":2,"left_children":[1,3,5,7,9,11,-1,-1,-1,13,-1,-1,15,-1,-1,-1,-1],"loss_changes":[1.1504247E-1,1.5422706E-2,1.7116904E-2,1.1686049E-3,1.0984011E-3,6.81323E-4,0E0,0E0,0E0,1.2928876E-4,0E0,0E0,1.3023987E-4,0E0,0E0,0E0,0E0],"parents":[2147483647,0,0,1,1,2,2,3,3,4,4,5,5,9,9,12,12],"right_children":[2,4,6,8,10,12,-1,-1,-1,14,-1,-1,16,-1,-1,-1,-1],"split_conditions":[7.578612E-1,7.1059626E-1,1.1695232E1,6.736493E-1,7.343001E-1,3.5970298E3,3.019032E-3,-2.210588E-3,-1.150073E-3,2.4467941E2,1.3105749E-4,1.8499357E-4,9.568377E2,-5.3140434E-4,-1.4044801E-4,1.1753843E-3,4.187255E-4],"split_indices":[25,25,3,25,25,0,0,0,0,9,0,0,6,0,0,0,0],"split_type":[0,0,0,0,0,0,0,0,0,0,0,0,0,0,0,0,0],"sum_hessian":[3.7739796E1,2.3385714E1,1.4354082E1,1.1885715E1,1.15E1,8.280612E0,6.0734696E0,5.7316327E0,6.1540813E0,8.968368E0,2.5316327E0,1.2928572E0,6.9877553E0,7.280612E0,1.6877551E0,5.2081633E0,1.7795918E0],"tree_param":{"num_deleted":"0","num_feature":"26","num_nodes":"17","size_leaf_vector":"1"}},{"base_weights":[1.8781978E-3,-3.9824173E-2,7.780856E-2,-7.298385E-2,-9.438552E-3,1.1914094E-3,2.949655E-3,-2.4858706E-3,-1.1252769E-3,-1.650347E-2,4.835574E-3,-5.228956E-4,-1.7636677E-4,2.7060648E-4,-1.17603E-4],"categories":[],"categories_nodes":[],"categories_segments":[],"categories_sizes":[],"default_left":[0,0,0,0,0,0,0,0,0,0,0,0,0,0,0],"id":3,"left_children":[1,3,5,7,9,-1,-1,-1,-1,11,13,-1,-1,-1,-1],"loss_changes":[1.405334E-1,2.8206002E-2,1.0785118E-2,3.4593567E-3,1.7047545E-3,0E0,0E0,0E0,0E0,1.2622308E-4,3.0710816E-4,0E0,0E0,0E0,0E0],"parents":[2147483647,0,0,1,1,2,2,3,3,4,4,9,9,10,10],"right_children":[2,4,6,8,10,-1,-1,-1,-1,12,14,-1,-1,-1,-1],"split_conditions":[7.8013444E-1,7.1059626E-1,1.1695333E1,1.5425391E1,7.394356E-1,1.1914094E-3,2.949655E-3,-2.4858706E-3,-1.1252769E-3,1.423211E3,1.5413431E1,-5.228956E-4,-1.7636677E-4,2.7060648E-4,-1.17603E-4],"split_indices":[25,25,3,11,25,0,0,0,0,20,11,0,0,0,0],"split_type":[0,0,0,0,0,0,0,0,0,0,0,0,0,0,0],"sum_hessian":[4.240306E1,2.7677551E1,1.4725511E1,1.2564285E1,1.5113265E1,7.573469E0,7.152041E0,7.327551E0,5.236735E0,1.0005102E1,5.1081634E0,7.565306E0,2.439796E0,3.2836735E0,1.8244898E0],"tree_param":{"num_deleted":"0","num_feature":"26","num_nodes":"15","size_leaf_vector":"1"}},{"base_weights":[5.8876523E-3,-4.0580496E-2,6.4243734E-2,-7.197802E-2,-1.728338E-2,3.3455413E-2,2.8624032E-3,-1.0184633E-3,-2.2437377E-3,-2.4644269E-2,2.952312E-3,2.558473E-4,3.866483E-2,-1.8607244E-4,-7.4378157E-4,-1.0802996E-4,2.095067E-4,4.3996185E-4,1.1619403E-3],"categories":[],"categories_nodes":[],"categories_segments":[],"categories_sizes":[],"default_left":[0,0,0,0,0,0,0,0,0,0,0,0,0,0,0,0,0,0,0],"id":4,"left_children":[1,3,5,7,9,11,-1,-1,-1,13,15,-1,17,-1,-1,-1,-1,-1,-1],"loss_changes":[1.2667005E-1,1.7834693E-2,2.0751394E-2,2.1947175E-4,2.4990141E-3,1.2811692E-3,0E0,0E0,0E0,2.3978949E-4,1.9046465E-4,0E0,1.8751249E-5,0E0,0E0,0E0,0E0,0E0,0E0],"parents":[2147483647,0,0,1,1,2,2,3,3,4,4,5,5,9,9,10,10,12,12],"right_children":[2,4,6,8,10,12,-1,-1,-1,14,16,-1,18,-1,-1,-1,-1,-1,-1],"split_conditions":[7.578612E-1,6.9851327E-1,1.1695333E1,1.7471552E1,2.4513121E2,3.5971226E3,2.8624032E-3,-1.0184633E-3,-2.2437377E-3,1.7471237E1,4.358589E2,2.558473E-4,3.6343668E2,-1.8607244E-4,-7.4378157E-4,-1.0802996E-4,2.095067E-4,4.3996185E-4,1.1619403E-3],"split_indices":[25,25,3,7,9,0,0,0,0,7,12,0,17,0,0,0,0,0,0],"split_type":[0,0,0,0,0,0,0,0,0,0,0,0,0,0,0,0,0,0,0],"sum_hessian":[4.475102E1,2.5082653E1,1.9668367E1,9.793878E0,1.5288775E1,1.19020405E1,7.7663264E0,2.8428571E0,6.9510202E0,1.1051021E1,4.2377553E0,2.5857143E0,9.316326E0,1.494898E0,9.556123E0,1.7520409E0,2.4857144E0,1.7428572E0,7.573469E0],"tree_param":{"num_deleted":"0","num_feature":"26","num_nodes":"19","size_leaf_vector":"1"}},{"base_weights":[1.4851923E-3,-3.0736854E-2,8.835288E-2,-4.4958446E-2,-6.3187775E-4,1.1364812E-3,2.8148268E-3,-1.8297955E-2,-7.340708E-2,-1.0303357E-2,5.8000075E-4,-2.8045797E-3,-1.0329358E-3,-8.5461565E-4,-2.207986E-3,-4.497884E-4,-2.412498E-3,2.2951666E-4,-8.641907E-3,7.790705E-5,-1.9355511E-4,3.5092227E-5,-3.5231104E-4],"categories":[],"categories_nodes":[],"categories_segments":[],"categories_sizes":[],"default_left":[0,0,0,0,0,0,0,0,0,0,0,0,0,0,0,0,0,0,0,0,0,0,0],"id":5,"left_children":[1,3,5,7,9,-1,-1,11,13,15,-1,17,-1,-1,-1,-1,19,-1,21,-1,-1,-1,-1],"loss_changes":[1.2561132E-1,1.4001066E-2,2.9790774E-3,1.5525442E-2,2.593281E-3,0E0,0E0,3.5875556E-3,3.0115247E-5,3.522089E-4,0E0,5.891848E-4,0E0,0E0,0E0,0E0,1.3159121E-4,0E0,2.4037913E-4,0E0,0E0,0E0,0E0],"parents":[2147483647,0,0,1,1,2,2,3,3,4,4,7,7,8,8,9,9,11,11,16,16,18,18],"right_children":[2,4,6,8,10,-1,-1,12,14,16,-1,18,-1,-1,-1,-1,20,-1,22,-1,-1,-1,-1],"split_conditions":[1.1694933E1,3.632922E2,1.1695333E1,2.0364822E2,9.567635E2,1.1364812E-3,2.8148268E-3,4.043454E2,9.566725E2,4.1536522E1,5.8000075E-4,3.4803196E3,-1.0329358E-3,-8.5461565E-4,-2.207986E-3,-4.497884E-4,3.4826091E3,2.2951666E-4,9.704433E1,7.790705E-5,-1.9355511E-4,3.5092227E-5,-3.5231104E-4],"split_indices":[3,17,3,16,6,0,0,19,6,24,0,1,0,0,0,0,1,0,4,0,0,0,0],"split_type":[0,0,0,0,0,0,0,0,0,0,0,0,0,0,0,0,0,0,0,0,0,0,0],"sum_hessian":[4.2906124E1,3.1768368E1,1.1137755E1,2.1240816E1,1.0527551E1,3.142857E0,7.994898E0,1.1813265E1,9.427551E0,7.6010203E0,2.9265306E0,7.071429E0,4.7418365E0,1.8071429E0,7.620408E0,3.794898E0,3.8061223E0,2.3112245E0,4.7602043E0,1.9438775E0,1.8622448E0,1.55E0,3.2102041E0],"tree_param":{"num_deleted":"0","num_feature":"26","num_nodes":"23","size_leaf_vector":"1"}},{"base_weights":[-2.658102E-3,-3.957354E-2,6.571539E-2,-6.472661E-2,-1.182866E-2,2.7029105E-3,3.41438E-2,-2.1313145E-3,-1.1208751E-3,-1.7486373E-2,1.9941991E-3,1.0584876E-3,2.775924E-4,-5.3618976E-4,-1.5025925E-4,1.9805413E-4,-1.452534E-4],"categories":[],"categories_nodes":[],"categories_segments":[],"categories_sizes":[],"default_left":[0,0,0,0,0,0,0,0,0,0,0,0,0,0,0,0,0],"id":6,"left_children":[1,3,5,7,9,-1,11,-1,-1,13,15,-1,-1,-1,-1,-1,-1],"loss_changes":[1.12066545E-1,1.932446E-2,1.1864096E-2,1.1377186E-3,1.2010948E-3,0E0,4.448248E-4,0E0,0E0,1.12603884E-4,2.274198E-4,0E0,0E0,0E0,0E0,0E0,0E0],"parents":[2147483647,0,0,1,1,2,2,3,3,4,4,6,6,9,9,10,10],"right_children":[2,4,6,8,10,-1,12,-1,-1,14,16,-1,-1,-1,-1,-1,-1],"split_conditions":[7.578612E-1,7.1109927E-1,9.605785E2,6.7633915E-1,2.4499425E2,2.7029105E-3,1.2500916E1,-2.1313145E-3,-1.1208751E-3,3.4858926E3,3.4803196E3,1.0584876E-3,2.775924E-4,-5.3618976E-4,-1.5025925E-4,1.9805413E-4,-1.452534E-4],"split_indices":[25,25,13,25,9,0,2,0,0,1,1,0,0,0,0,0,0],"split_type":[0,0,0,0,0,0,0,0,0,0,0,0,0,0,0,0,0],"sum_hessian":[4.236939E1,2.7787756E1,1.4581633E1,1.387551E1,1.3912245E1,6.337755E0,8.243877E0,8.070408E0,5.805102E0,9.683674E0,4.2285714E0,6.6755104E0,1.5683674E0,8.005102E0,1.6785715E0,2.4857144E0,1.7428572E0],"tree_param":{"num_deleted":"0","num_feature":"26","num_nodes":"17","size_leaf_vector":"1"}},{"base_weights":[6.7634135E-3,-2.4165431E-2,8.0579236E-2,-3.8357295E-2,2.4447098E-2,1.024876E-3,2.6096762E-3,-6.226783E-2,-2.089011E-2,9.203331E-4,4.914565E-5,-1.9068837E-3,-3.6201757E-4,-6.808247E-3,-3.561861E-2,-1.5793199E-2,4.456199E-3,-3.653678E-4,-1.2108461E-3,-1.2642781E-4,-5.176096E-4,2.4969724E-4,-8.321429E-5],"categories":[],"categories_nodes":[],"categories_segments":[],"categories_sizes":[],"default_left":[0,0,0,0,0,0,0,0,0,0,0,0,0,0,0,0,0,0,0,0,0,0,0],"id":7,"left_children":[1,3,5,7,9,-1,-1,11,13,-1,-1,-1,-1,15,17,19,21,-1,-1,-1,-1,-1,-1],"loss_changes":[8.829033E-2,1.985583E-2,2.915956E-3,7.7264234E-3,1.2432197E-3,0E0,0E0,1.6009882E-3,2.6601073E-3,0E0,0E0,0E0,0E0,9.196163E-4,5.723685E-4,6.497069E-5,1.7573935E-4,0E0,0E0,0E0,0E0,0E0,0E0],"parents":[2147483647,0,0,1,1,2,2,3,3,4,4,7,7,8,8,13,13,14,14,15,15,16,16],"right_children":[2,4,6,8,10,-1,-1,12,14,-1,-1,-1,-1,16,18,20,22,-1,-1,-1,-1,-1,-1],"split_conditions":[1.1694933E1,2.2697296E0,1.1695333E1,9.608297E2,9.746882E2,1.024876E-3,2.6096762E-3,1.1694435E1,9.720668E1,9.203331E-4,4.914565E-5,-1.9068837E-3,-3.6201757E-4,9.616354E2,1.7965908E1,1.4164219E4,2.040738E2,-3.653678E-4,-1.2108461E-3,-1.2642781E-4,-5.176096E-4,2.4969724E-4,-8.321429E-5],"split_indices":[3,10,3,13,5,0,0,3,4,0,0,0,0,13,7,14,16,0,0,0,0,0,0],"split_type":[0,0,0,0,0,0,0,0,0,0,0,0,0,0,0,0,0,0,0,0,0,0,0],"sum_hessian":[3.681939E1,2.6421429E1,1.0397959E1,2.0614286E1,5.8071427E0,3.1887755E0,7.2091837E0,7.6193876E0,1.2994898E1,3.9081633E0,1.8989797E0,6.4734693E0,1.1459184E0,7.390816E0,5.6040816E0,3.8877552E0,3.5030613E0,2.1E0,3.5040817E0,1.2653061E0,2.622449E0,2.0632653E0,1.439796E0],"tree_param":{"num_deleted":"0","num_feature":"26","num_nodes":"23","size_leaf_vector":"1"}},{"base_weights":[-2.8875351E-3,-3.5857476E-2,5.6787226E-2,-2.0845872E-3,-1.831594E-2,2.7452918E-2,2.4606793E-3,-2.740421E-2,-4.9714018E-3,1.7857068E-4,3.1391133E-2,-3.9663314E-4,-9.320115E-4,-1.0525988E-2,4.940864E-3,9.7180484E-4,3.5504345E-4,-3.6866753E-4,-1.3501584E-4,9.1633665E-6,2.0673187E-4],"categories":[],"categories_nodes":[],"categories_segments":[],"categories_sizes":[],"default_left":[0,0,0,0,0,0,0,0,0,0,0,0,0,0,0,0,0,0,0,0,0],"id":8,"left_children":[1,3,5,-1,7,9,-1,11,13,-1,15,-1,-1,17,19,-1,-1,-1,-1,-1,-1],"loss_changes":[8.949846E-2,1.8435515E-2,1.2370359E-2,0E0,2.4632122E-3,6.1268825E-4,0E0,5.0407555E-4,5.973679E-4,0E0,5.610939E-5,0E0,0E0,3.693771E-5,4.5336194E-5,0E0,0E0,0E0,0E0,0E0,0E0],"parents":[2147483647,0,0,1,1,2,2,4,4,5,5,7,7,8,8,10,10,13,13,14,14],"right_children":[2,4,6,-1,8,10,-1,12,14,-1,16,-1,-1,18,20,-1,-1,-1,-1,-1,-1],"split_conditions":[7.578612E-1,6.783575E-1,1.1695282E1,-2.0845872E-3,7.252643E-1,3.5971226E3,2.4606793E-3,3.6043223E3,4.3595697E2,1.7857068E-4,9.5684735E2,-3.9663314E-4,-9.320115E-4,1.7965908E1,1.7471176E1,9.7180484E-4,3.5504345E-4,-3.6866753E-4,-1.3501584E-4,9.1633665E-6,2.0673187E-4],"split_indices":[25,25,3,0,25,0,0,0,12,0,6,0,0,7,7,0,0,0,0,0,0],"split_type":[0,0,0,0,0,0,0,0,0,0,0,0,0,0,0,0,0,0,0,0,0],"sum_hessian":[4.3454082E1,2.8246939E1,1.5207143E1,7.8132653E0,2.0433674E1,8.793878E0,6.413265E0,1.1528571E1,8.905102E0,1.7969388E0,6.9969387E0,4.5948977E0,6.9336734E0,5.667347E0,3.237755E0,5.217347E0,1.7795918E0,2.9795918E0,2.687755E0,1.5132654E0,1.7244898E0],"tree_param":{"num_deleted":"0","num_feature":"26","num_nodes":"21","size_leaf_vector":"1"}},{"base_weights":[-1.3205169E-3,-3.437088E-2,6.718654E-2,-5.8938574E-2,-5.286143E-3,1.0380058E-3,2.5185184E-3,-2.0166447E-3,-1.0050313E-3,-1.3763315E-2,7.3693595E-3,-1.6320513E-4,-1.6027406E-2,2.6780058E-4,-3.8549726E-5,-1.2496908E-4,-4.9910357E-4],"categories":[],"categories_nodes":[],"categories_segments":[],"categories_sizes":[],"default_left":[0,0,0,0,0,0,0,0,0,0,0,0,0,0,0,0,0],"id":9,"left_children":[1,3,5,7,9,-1,-1,-1,-1,11,13,-1,15,-1,-1,-1,-1],"loss_changes":[1.1103164E-1,2.3306344E-2,7.608637E-3,2.7878135E-3,1.843022E-3,0E0,0E0,0E0,0E0,8.749042E-5,1.506833E-4,0E0,7.144129E-5,0E0,0E0,0E0,0E0],"parents":[2147483647,0,0,1,1,2,2,3,3,4,4,9,9,10,10,12,12],"right_children":[2,4,6,8,10,-1,-1,-1,-1,12,14,-1,16,-1,-1,-1,-1],"split_conditions":[7.8013444E-1,7.1109927E-1,1.1695333E1,6.7633915E-1,7.394356E-1,1.0380058E-3,2.5185184E-3,-2.0166447E-3,-1.0050313E-3,9.75E2,1.5450849E1,-1.6320513E-4,1.2413436E1,2.6780058E-4,-3.8549726E-5,-1.2496908E-4,-4.9910357E-4],"split_indices":[25,25,3,25,25,0,0,0,0,5,11,0,2,0,0,0,0],"split_type":[0,0,0,0,0,0,0,0,0,0,0,0,0,0,0,0,0],"sum_hessian":[4.7018368E1,3.2053062E1,1.4965306E1,1.6819387E1,1.5233673E1,7.573469E0,7.3918366E0,9.372449E0,7.4469385E0,9.070408E0,6.163265E0,2.8071427E0,6.263265E0,4.852041E0,1.3112245E0,1.3112245E0,4.9520407E0],"tree_param":{"num_deleted":"0","num_feature":"26","num_nodes":"17","size_leaf_vector":"1"}},{"base_weights":[-3.1867058E-3,-2.8369594E-2,7.8852355E-2,-5.902081E-2,-1.37955835E-2,9.738596E-4,2.4782491E-3,-1.9292872E-3,-3.49823E-4,-3.173431E-2,4.964074E-3,-9.825159E-3,-4.550642E-2,1.7825246E-2,-1.1009855E-2,-3.8246755E-4,4.87783E-5,-1.4343531E-3,-4.6857528E-4,2.6990555E-4,6.66233E-4,-5.330556E-4,-2.678191E-3,1.4011554E-5,-1.3685753E-4],"categories":[],"categories_nodes":[],"categories_segments":[],"categories_sizes":[],"default_left":[0,0,0,0,0,0,0,0,0,0,0,0,0,0,0,0,0,0,0,0,0,0,0,0,0],"id":10,"left_children":[1,3,5,7,9,-1,-1,-1,-1,11,13,15,17,19,21,-1,-1,-1,-1,-1,-1,-1,23,-1,-1],"loss_changes":[1.0007172E-1,1.569996E-2,1.7675683E-3,4.476521E-3,9.028383E-3,0E0,0E0,0E0,0E0,3.6595706E-3,3.0211005E-3,3.1336024E-4,4.7285855E-4,1.614606E-4,4.0055736E-4,0E0,0E0,0E0,0E0,0E0,0E0,0E0,3.3886237E-5,0E0,0E0],"parents":[2147483647,0,0,1,1,2,2,3,3,4,4,9,9,10,10,11,11,12,12,13,13,14,14,22,22],"right_children":[2,4,6,8,10,-1,-1,-1,-1,12,14,16,18,20,22,-1,-1,-1,-1,-1,-1,-1,24,-1,-1],"split_conditions":[1.1694933E1,9.608297E2,1.2418689E1,1.2412385E1,2.4448116E2,9.738596E-4,2.4782491E-3,-1.9292872E-3,-3.49823E-4,4.9930425E0,1.5413431E1,1.1694784E1,4.999987E0,3.633231E2,1.7965908E1,-3.8246755E-4,4.87783E-5,-1.4343531E-3,-4.6857528E-4,2.6990555E-4,6.66233E-4,-5.330556E-4,3.4876667E3,1.4011554E-5,-1.3685753E-4],"split_indices":[3,13,2,2,9,0,0,0,0,8,11,3,8,17,7,0,0,0,0,0,0,0,1,0,0],"split_type":[0,0,0,0,0,0,0,0,0,0,0,0,0,0,0,0,0,0,0,0,0,0,0,0,0],"sum_hessian":[4.6355103E1,3.596837E1,1.0386735E1,1.0608163E1,2.5360205E1,2.6938775E0,7.6928573E0,8.353062E0,2.2551022E0,1.2610204E1,1.275E1,5.528571E0,7.0816326E0,6.9989796E0,5.7510204E0,4.0163264E0,1.5122449E0,5.2561226E0,1.8255103E0,4.054082E0,2.944898E0,2.2744899E0,3.4765306E0,1.7428572E0,1.7336735E0],"tree_param":{"num_deleted":"0","num_feature":"26","num_nodes":"25","size_leaf_vector":"1"}},{"base_weights":[3.0068122E-3,-3.6430284E-2,6.0720455E-2,-2.103149E-3,-2.2348015E-2,2.3976504E-3,2.6542906E-2,-9.6360856E-4,-1.2303059E-2,1.5473404E-4,8.288236E-4,6.870713E-5,-1.4709881E-2,-4.5490524E-4,-1.2662479E-4],"categories":[],"categories_nodes":[],"categories_segments":[],"categories_sizes":[],"default_left":[0,0,0,0,0,0,0,0,0,0,0,0,0,0,0],"id":11,"left_children":[1,3,5,-1,7,-1,9,-1,11,-1,-1,-1,13,-1,-1],"loss_changes":[9.1210596E-2,1.1315487E-2,1.1559986E-2,0E0,1.868791E-3,0E0,3.6977557E-4,0E0,4.579163E-4,0E0,0E0,0E0,8.8626985E-5,0E0,0E0],"parents":[2147483647,0,0,1,1,2,2,4,4,6,6,8,8,12,12],"right_children":[2,4,6,-1,8,-1,10,-1,12,-1,-1,-1,14,-1,-1],"split_conditions":[7.578612E-1,6.554532E-1,9.606577E2,-2.103149E-3,7.1059626E-1,2.3976504E-3,4.153668E1,-9.6360856E-4,4.153253E1,1.5473404E-4,8.288236E-4,6.870713E-5,2.4499425E2,-4.5490524E-4,-1.2662479E-4],"split_indices":[25,25,13,0,25,0,24,0,24,0,0,0,9,0,0],"split_type":[0,0,0,0,0,0,0,0,0,0,0,0,0,0,0],"sum_hessian":[3.810204E1,2.2854082E1,1.5247959E1,4.9428573E0,1.7911224E1,7.94898E0,7.2989798E0,7.0346937E0,1.0876531E1,1.2836735E0,6.015306E0,1.522449E0,9.354082E0,7.6112247E0,1.7428572E0],"tree_param":{"num_deleted":"0","num_feature":"26","num_nodes":"15","size_leaf_vector":"1"}},{"base_weights":[8.810867E-3,-3.221588E-2,5.576219E-2,-1.5943368E-3,-1.0909587E-2,2.301521E-3,3.0080603E-2,-5.0564425E-4,2.6762497E-3,9.7878E-4,2.4547242E-4,1.818112E-4,-8.766251E-5],"categories":[],"categories_nodes":[],"categories_segments":[],"categories_sizes":[],"default_left":[0,0,0,0,0,0,0,0,0,0,0,0,0],"id":12,"left_children":[1,3,5,-1,7,-1,9,-1,11,-1,-1,-1,-1],"loss_changes":[7.6305345E-2,1.0587115E-2,1.0021843E-2,0E0,1.2784725E-3,0E0,8.2756206E-4,0E0,1.3642694E-4,0E0,0E0,0E0,0E0],"parents":[2147483647,0,0,1,1,2,2,4,4,6,6,8,8],"right_children":[2,4,6,-1,8,-1,10,-1,12,-1,-1,-1,-1],"split_conditions":[7.578612E-1,6.9851327E-1,9.605785E2,-1.5943368E-3,2.4513121E2,2.301521E-3,9.77E2,-5.0564425E-4,1.5413431E1,9.7878E-4,2.4547242E-4,1.818112E-4,-8.766251E-5],"split_indices":[25,25,13,0,9,0,5,0,11,0,0,0,0],"split_type":[0,0,0,0,0,0,0,0,0,0,0,0,0],"sum_hessian":[3.768061E1,2.0276531E1,1.7404081E1,8.611224E0,1.1665306E1,7.4918365E0,9.912245E0,7.4275513E0,4.2377553E0,7.5459185E0,2.3663266E0,2.4857144E0,1.7520409E0],"tree_param":{"num_deleted":"0","num_feature":"26","num_nodes":"13","size_leaf_vector":"1"}},{"base_weights":[5.494241E-4,-3.6252808E-2,5.2793346E-2,-5.902003E-2,-1.4715046E-2,2.5487844E-2,2.2320016E-3,-1.7547538E-3,-6.705817E-4,-5.52726E-4,-1.1101572E-3,1.5283634E-4,8.3036156E-4,-1.5148333E-4,1.3085076E-4],"categories":[],"categories_nodes":[],"categories_segments":[],"categories_sizes":[],"default_left":[0,0,0,0,0,0,0,0,0,0,0,0,0,0,0],"id":13,"left_children":[1,3,5,7,9,11,-1,-1,-1,-1,13,-1,-1,-1,-1],"loss_changes":[8.721869E-2,1.2186471E-2,1.1746716E-2,1.13192946E-4,1.0044945E-3,7.376764E-4,0E0,0E0,0E0,0E0,1.5233997E-4,0E0,0E0,0E0,0E0],"parents":[2147483647,0,0,1,1,2,2,3,3,4,4,5,5,10,10],"right_children":[2,4,6,8,10,12,-1,-1,-1,-1,14,-1,-1,-1,-1],"split_conditions":[7.513548E-1,6.9851327E-1,1.1695282E1,4.999206E0,7.3052436E-1,4.0286874E2,2.2320016E-3,-1.7547538E-3,-6.705817E-4,-5.52726E-4,9.567635E2,1.5283634E-4,8.3036156E-4,-1.5148333E-4,1.3085076E-4],"split_indices":[25,25,3,8,25,19,0,0,0,0,6,0,0,0,0],"split_type":[0,0,0,0,0,0,0,0,0,0,0,0,0,0,0],"sum_hessian":[4.3367348E1,2.562347E1,1.7743877E1,1.1610204E1,1.4013266E1,9.77551E0,7.9683676E0,9.8030615E0,1.8071429E0,9.904081E0,4.109184E0,2.0816326E0,7.6938777E0,2.3938775E0,1.7153062E0],"tree_param":{"num_deleted":"0","num_feature":"26","num_nodes":"15","size_leaf_vector":"1"}},{"base_weights":[-1.711014E-3,-3.0998632E-2,5.2687928E-2,-1.6539056E-3,-1.7017707E-2,2.1755395E-2,2.1466212E-3,-2.2753788E-2,-5.4141926E-3,7.1365613E-4,2.3318829E-4,-3.4731504E-4,-7.601121E-4,-9.191427E-3,7.843797E-5,-3.264871E-4,-1.2345657E-4],"categories":[],"categories_nodes":[],"categories_segments":[],"categories_sizes":[],"default_left":[0,0,0,0,0,0,0,0,0,0,0,0,0,0,0,0,0],"id":14,"left_children":[1,3,5,-1,7,9,-1,11,13,-1,-1,-1,-1,15,-1,-1,-1],"loss_changes":[7.555032E-2,1.1077039E-2,1.0649189E-2,0E0,1.3381778E-3,2.2112485E-4,0E0,3.1710835E-4,2.9186418E-4,0E0,0E0,0E0,0E0,2.0704523E-5,0E0,0E0,0E0],"parents":[2147483647,0,0,1,1,2,2,4,4,5,5,7,7,8,8,13,13],"right_children":[2,4,6,-1,8,10,-1,12,14,-1,-1,-1,-1,16,-1,-1,-1],"split_conditions":[7.578612E-1,6.783575E-1,1.1695232E1,-1.6539056E-3,7.252643E-1,1.2500916E1,2.1466212E-3,3.6043223E3,4.3595697E2,7.1365613E-4,2.3318829E-4,-3.4731504E-4,-7.601121E-4,2.4499425E2,7.843797E-5,-3.264871E-4,-1.2345657E-4],"split_indices":[25,25,3,0,25,2,0,0,12,0,0,0,0,9,0,0,0],"split_type":[0,0,0,0,0,0,0,0,0,0,0,0,0,0,0,0,0],"sum_hessian":[4.5394897E1,2.9787756E1,1.5607142E1,8.831633E0,2.0956123E1,7.647959E0,7.9591837E0,1.3380612E1,7.57551E0,5.2816324E0,2.3663266E0,5.1265306E0,8.254082E0,5.1081634E0,2.467347E0,2.4204082E0,2.687755E0],"tree_param":{"num_deleted":"0","num_feature":"26","num_nodes":"17","size_leaf_vector":"1"}},{"base_weights":[-4.9537634E-3,-3.9075423E-2,5.1787287E-2,-5.600619E-2,-1.1112468E-2,2.6401114E-2,2.1663464E-3,-7.760454E-4,-1.7786379E-3,6.969417E-6,-1.2865222E-2,8.750951E-4,2.606405E-4,-4.1940287E-4,-1.4462383E-4],"categories":[],"categories_nodes":[],"categories_segments":[],"categories_sizes":[],"default_left":[0,0,0,0,0,0,0,0,0,0,0,0,0,0,0],"id":15,"left_children":[1,3,5,7,9,11,-1,-1,-1,-1,13,-1,-1,-1,-1],"loss_changes":[8.424854E-2,1.2203354E-2,8.594178E-3,1.7749779E-3,2.3149862E-4,5.1678624E-4,0E0,0E0,0E0,0E0,8.457352E-5,0E0,0E0,0E0,0E0],"parents":[2147483647,0,0,1,1,2,2,3,3,4,4,5,5,10,10],"right_children":[2,4,6,8,10,12,-1,-1,-1,-1,14,-1,-1,-1,-1],"split_conditions":[7.578612E-1,7.1109927E-1,1.1695333E1,1.2408532E1,1.240608E1,9.5684735E2,2.1663464E-3,-7.760454E-4,-1.7786379E-3,6.969417E-6,9.616354E2,8.750951E-4,2.606405E-4,-4.1940287E-4,-1.4462383E-4],"split_indices":[25,25,3,2,2,6,0,0,0,0,13,0,0,0,0],"split_type":[0,0,0,0,0,0,0,0,0,0,0,0,0,0,0],"sum_hessian":[4.1469387E1,2.6090816E1,1.53785715E1,1.5626531E1,1.0464286E1,8.738775E0,6.639796E0,4.2642856E0,1.1362245E1,1.5132654E0,8.95102E0,6.1612244E0,2.5775511E0,6.2816324E0,2.6693878E0],"tree_param":{"num_deleted":"0","num_feature":"26","num_nodes":"15","size_leaf_vector":"1"}},{"base_weights":[4.4378117E-3,-2.4272462E-2,6.229318E-2,-1.7576905E-3,-8.787284E-3,9.253864E-4,2.1360456E-3,-1.6435955E-2,3.996913E-3,-1.7841307E-2,-1.4270945E-4,8.242156E-3,-1.0231936E-4,-1.296758E-4,-1.9367585E-2,8.751738E-5,2.6242735E-4,-2.0848532E-4,-5.8376236E-4],"categories":[],"categories_nodes":[],"categories_segments":[],"categories_sizes":[],"default_left":[0,0,0,0,0,0,0,0,0,0,0,0,0,0,0,0,0,0,0],"id":16,"left_children":[1,3,5,-1,7,-1,-1,9,11,13,-1,15,-1,-1,17,-1,-1,-1,-1],"loss_changes":[6.844528E-2,1.593429E-2,3.0627921E-3,0E0,2.107643E-3,0E0,0E0,1.203923E-4,3.1015248E-4,1.4013122E-4,0E0,4.547561E-6,0E0,0E0,1.9637402E-5,0E0,0E0,0E0,0E0],"parents":[2147483647,0,0,1,1,2,2,4,4,7,7,8,8,9,9,11,11,14,14],"right_children":[2,4,6,-1,8,-1,-1,10,12,14,-1,16,-1,-1,18,-1,-1,-1,-1],"split_conditions":[7.8013444E-1,6.7633915E-1,1.1695333E1,-1.7576905E-3,7.343001E-1,9.253864E-4,2.1360456E-3,2.264336E0,1.5450849E1,1.7471237E1,-1.4270945E-4,9.663784E1,-1.0231936E-4,-1.296758E-4,2.3859839E2,8.751738E-5,2.6242735E-4,-2.0848532E-4,-5.8376236E-4],"split_indices":[25,25,3,0,25,0,0,10,11,7,0,4,0,0,9,0,0,0,0],"split_type":[0,0,0,0,0,0,0,0,0,0,0,0,0,0,0,0,0,0,0],"sum_hessian":[3.9295918E1,2.665102E1,1.2644898E1,6.7683673E0,1.9882652E1,5.180612E0,7.464286E0,1.2261225E1,7.6214285E0,1.0398979E1,1.8622448E0,4.852041E0,2.7693877E0,1.494898E0,8.904081E0,1.5591837E0,3.2928572E0,1.65E0,7.2540817E0],"tree_param":{"num_deleted":"0","num_feature":"26","num_nodes":"19","size_leaf_vector":"1"}},{"base_weights":[1.7255202E-3,-2.4691187E-2,5.7342652E-2,-4.75101E-2,-5.754709E-3,8.8360824E-4,2.0563675E-3,-1.452522E-3,-3.639366E-4,-1.2239336E-2,5.7828007E-3,-1.4117337E-2,-1.3400197E-4,9.746855E-3,-9.51003E-5,-4.3372076E-4,-1.2749982E-4,8.6024724E-5,3.3121425E-4],"categories":[],"categories_nodes":[],"categories_segments":[],"categories_sizes":[],"default_left":[0,0,0,0,0,0,0,0,0,0,0,0,0,0,0,0,0,0,0],"id":17,"left_children":[1,3,5,7,9,-1,-1,-1,-1,11,13,15,-1,17,-1,-1,-1,-1,-1],"loss_changes":[6.401519E-2,1.251087E-2,3.5029054E-3,1.3265721E-3,1.3655603E-3,0E0,0E0,0E0,0E0,9.201199E-5,2.8439768E-4,4.227308E-5,0E0,3.4281402E-5,0E0,0E0,0E0,0E0,0E0],"parents":[2147483647,0,0,1,1,2,2,3,3,4,4,9,9,10,10,11,11,13,13],"right_children":[2,4,6,8,10,-1,-1,-1,-1,12,14,16,-1,18,-1,-1,-1,-1,-1],"split_conditions":[7.8013444E-1,7.1109927E-1,1.1695333E1,4.999987E0,7.394356E-1,8.8360824E-4,2.0563675E-3,-1.452522E-3,-3.639366E-4,4.994275E0,1.5450849E1,1.4220415E3,-1.3400197E-4,9.663784E1,-9.51003E-5,-4.3372076E-4,-1.2749982E-4,8.6024724E-5,3.3121425E-4],"split_indices":[25,25,3,8,25,0,0,0,0,8,11,20,0,4,0,0,0,0,0],"split_type":[0,0,0,0,0,0,0,0,0,0,0,0,0,0,0,0,0,0,0],"sum_hessian":[4.1607143E1,2.8585714E1,1.3021429E1,1.2279592E1,1.6306122E1,6.142857E0,6.8785715E0,1.0454082E1,1.8255103E0,1.04E1,5.906122E0,7.5928574E0,2.8071427E0,4.0816326E0,1.8244898E0,6.097959E0,1.494898E0,1.5591837E0,2.522449E0],"tree_param":{"num_deleted":"0","num_feature":"26","num_nodes":"19","size_leaf_vector":"1"}},{"base_weights":[-2.3782856E-3,-3.2548897E-2,4.349407E-2,-5.913503E-2,-1.3184528E-2,2.4478205E-2,1.9537155E-3,-6.640578E-4,-1.8193054E-3,-1.5767517E-2,-2.6071428E-3,1.7773734E-4,2.7122209E-2,-1.2536084E-4,-1.6834762E-2,-4.887172E-6,-1.13586015E-4,8.373239E-4,2.5979514E-4,-5.4154824E-4,-2.364785E-4],"categories":[],"categories_nodes":[],"categories_segments":[],"categories_sizes":[],"default_left":[0,0,0,0,0,0,0,0,0,0,0,0,0,0,0,0,0,0,0,0,0],"id":18,"left_children":[1,3,5,7,9,11,-1,-1,-1,13,15,-1,17,-1,19,-1,-1,-1,-1,-1,-1],"loss_changes":[6.0678996E-2,1.2813253E-2,6.996602E-3,7.012449E-4,4.1142106E-4,3.8610492E-4,0E0,0E0,0E0,8.264929E-5,1.4979292E-5,0E0,2.119462E-4,0E0,8.095172E-5,0E0,0E0,0E0,0E0,0E0,0E0],"parents":[2147483647,0,0,1,1,2,2,3,3,4,4,5,5,9,9,10,10,12,12,14,14],"right_children":[2,4,6,8,10,12,-1,-1,-1,14,16,-1,18,-1,20,-1,-1,-1,-1,-1,-1],"split_conditions":[7.578612E-1,6.9851327E-1,1.1695333E1,1.7471613E1,2.4513121E2,3.5970298E3,1.9537155E-3,-6.640578E-4,-1.8193054E-3,1.7471237E1,3.4748162E3,1.7773734E-4,9.5684735E2,-1.2536084E-4,2.0626822E2,-4.887172E-6,-1.13586015E-4,8.373239E-4,2.5979514E-4,-5.4154824E-4,-2.364785E-4],"split_indices":[25,25,3,7,9,0,0,0,0,7,1,0,6,0,16,0,0,0,0,0,0],"split_type":[0,0,0,0,0,0,0,0,0,0,0,0,0,0,0,0,0,0,0,0,0],"sum_hessian":[4.1820408E1,2.540306E1,1.6417347E1,9.839796E0,1.5563265E1,1.0645918E1,5.7714286E0,2.1091838E0,7.7306123E0,1.2114285E1,3.4489796E0,1.787755E0,8.858163E0,1.494898E0,1.0619388E1,1.7061224E0,1.7428572E0,7.0785713E0,1.7795918E0,7.1714287E0,3.4479592E0],"tree_param":{"num_deleted":"0","num_feature":"26","num_nodes":"21","size_leaf_vector":"1"}},{"base_weights":[6.197686E-4,-3.5207555E-2,4.273773E-2,-5.6851823E-2,-1.7278895E-2,2.1383034E-2,1.9161305E-3,-1.7153086E-3,-5.9829635E-4,-2.0897042E-2,-6.174253E-3,8.305687E-3,2.7113123E-2,-2.9177536E-4,-7.14049E-4,-2.1157555E-4,-6.5351574E-5,4.8435293E-5,2.8443406E-4,8.3055085E-4,2.7655688E-4],"categories":[],"categories_nodes":[],"categories_segments":[],"categories_sizes":[],"default_left":[0,0,0,0,0,0,0,0,0,0,0,0,0,0,0,0,0,0,0,0,0],"id":19,"left_children":[1,3,5,7,9,11,-1,-1,-1,13,15,17,19,-1,-1,-1,-1,-1,-1,-1,-1],"loss_changes":[6.128469E-2,7.5373985E-3,8.776467E-3,1.7892383E-4,4.1116774E-4,6.4748665E-4,0E0,0E0,0E0,2.0323135E-4,7.4326963E-6,4.3217908E-5,4.3445732E-5,0E0,0E0,0E0,0E0,0E0,0E0,0E0,0E0],"parents":[2147483647,0,0,1,1,2,2,3,3,4,4,5,5,9,9,10,10,11,11,12,12],"right_children":[2,4,6,8,10,12,-1,-1,-1,14,16,18,20,-1,-1,-1,-1,-1,-1,-1,-1],"split_conditions":[7.3733354E-1,6.7633915E-1,1.1695282E1,3.6218975E3,7.252643E-1,7.8013444E-1,1.9161305E-3,-1.7153086E-3,-5.9829635E-4,3.6043223E3,4.3499377E2,3.5971226E3,3.6091692E3,-2.9177536E-4,-7.14049E-4,-2.1157555E-4,-6.5351574E-5,4.8435293E-5,2.8443406E-4,8.3055085E-4,2.7655688E-4],"split_indices":[25,25,3,0,25,25,0,0,0,0,12,0,0,0,0,0,0,0,0,0,0],"split_type":[0,0,0,0,0,0,0,0,0,0,0,0,0,0,0,0,0,0,0,0,0],"sum_hessian":[3.8616325E1,2.0955101E1,1.7661224E1,8.510204E0,1.2444898E1,1.0645918E1,7.015306E0,6.9234695E0,1.5867348E0,8.721429E0,3.7234693E0,3.989796E0,6.656122E0,3.6591835E0,5.062245E0,2.0265307E0,1.6969388E0,1.3020408E0,2.687755E0,5.1704082E0,1.4857143E0],"tree_param":{"num_deleted":"0","num_feature":"26","num_nodes":"21","size_leaf_vector":"1"}},{"base_weights":[-1.4966149E-3,-2.5767097E-2,6.28685E-2,-4.9694594E-2,-3.674111E-3,1.9482875E-3,7.1596354E-4,-1.6488133E-3,-7.58651E-4,-1.1130352E-2,6.6011394E-3,-3.647518E-4,-1.2491034E-4,-5.6555407E-5,2.817287E-4],"categories":[],"categories_nodes":[],"categories_segments":[],"categories_sizes":[],"default_left":[0,0,0,0,0,0,0,0,0,0,0,0,0,0,0],"id":20,"left_children":[1,3,5,7,9,-1,-1,-1,-1,11,13,-1,-1,-1,-1],"loss_changes":[6.669877E-2,1.6184445E-2,1.1498556E-3,1.4754981E-3,1.3895265E-3,0E0,0E0,0E0,0E0,7.249869E-5,2.5454836E-4,0E0,0E0,0E0,0E0],"parents":[2147483647,0,0,1,1,2,2,3,3,4,4,9,9,10,10],"right_children":[2,4,6,8,10,-1,-1,-1,-1,12,14,-1,-1,-1,-1],"split_conditions":[7.9261684E-1,7.1109927E-1,9.605785E2,6.7633915E-1,7.394356E-1,1.9482875E-3,7.1596354E-4,-1.6488133E-3,-7.58651E-4,4.9930425E0,9.616519E2,-3.647518E-4,-1.2491034E-4,-5.6555407E-5,2.817287E-4],"split_indices":[25,25,13,25,25,0,0,0,0,8,13,0,0,0,0],"split_type":[0,0,0,0,0,0,0,0,0,0,0,0,0,0,0],"sum_hessian":[4.0659184E1,2.9961224E1,1.0697959E1,1.3783673E1,1.6177551E1,8.332653E0,2.3653061E0,8.657143E0,5.1265306E0,9.32653E0,6.8510203E0,6.5193877E0,2.8071427E0,2.0816326E0,4.7693877E0],"tree_param":{"num_deleted":"0","num_feature":"26","num_nodes":"15","size_leaf_vector":"1"}},{"base_weights":[3.6947378E-3,-1.64744E-2,5.7699796E-2,-2.0605568E-2,4.318142E-4,7.5983687E-4,1.8077241E-3,-4.90709E-3,-2.7872572E-2,-2.4781434E-4,1.3909613E-4,-8.859088E-3,-3.3858895E-2,-3.6835144E-4,5.868652E-5,-4.041227E-2,-8.450457E-3,-5.48191E-4,-1.2570106E-3,6.541444E-5,-4.5435005E-4],"categories":[],"categories_nodes":[],"categories_segments":[],"categories_sizes":[],"default_left":[0,0,0,0,0,0,0,0,0,0,0,0,0,0,0,0,0,0,0,0,0],"id":21,"left_children":[1,3,5,7,-1,-1,-1,9,11,-1,-1,13,15,-1,-1,17,19,-1,-1,-1,-1],"loss_changes":[4.3073975E-2,4.130476E-3,4.998557E-4,2.8344532E-3,0E0,0E0,0E0,4.1215366E-4,1.702127E-3,0E0,0E0,2.8955966E-4,1.8270509E-3,0E0,0E0,6.292015E-5,3.6795487E-4,0E0,0E0,0E0,0E0],"parents":[2147483647,0,0,1,1,2,2,3,3,7,7,8,8,11,11,12,12,15,15,16,16],"right_children":[2,4,6,8,-1,-1,-1,10,12,-1,-1,14,16,-1,-1,18,20,-1,-1,-1,-1],"split_conditions":[1.16949835E1,2.2715275E0,1.2418689E1,3.6058862E3,4.318142E-4,7.5983687E-4,1.8077241E-3,9.788876E2,9.190142E2,-2.4781434E-4,1.3909613E-4,1.4221879E3,9.798357E2,-3.6835144E-4,5.868652E-5,3.6109976E3,9.7992883E2,-5.48191E-4,-1.2570106E-3,6.541444E-5,-4.5435005E-4],"split_indices":[3,10,2,0,0,0,0,5,23,0,0,20,5,0,0,0,5,0,0,0,0],"split_type":[0,0,0,0,0,0,0,0,0,0,0,0,0,0,0,0,0,0,0,0,0],"sum_hessian":[3.7672447E1,2.7934694E1,9.737755E0,2.5044897E1,2.889796E0,2.6938775E0,7.0438776E0,8.455102E0,1.6589796E1,6.1163263E0,2.3387756E0,4.5663266E0,1.2023469E1,3.1357143E0,1.4306122E0,9.088776E0,2.9346938E0,2.5591836E0,6.529592E0,1.522449E0,1.4122448E0],"tree_param":{"num_deleted":"0","num_feature":"26","num_nodes":"21","size_leaf_vector":"1"}},{"base_weights":[-1.8528809E-3,-1.8132022E-2,5.8824077E-2,-2.5298323E-2,2.108065E-2,6.7741657E-4,1.7909516E-3,-4.0030785E-2,-1.2808757E-2,6.8540266E-4,2.5927485E-4,-1.5931653E-2,-1.5961645E-3,-3.3873603E-2,-3.262579E-3,-5.6293182E-5,-6.274002E-4,-1.1724829E-3,-2.9427017E-4,-7.237491E-3,3.9869808E-3,-9.500555E-3,-2.4201593E-3,4.7614903E-6,1.88384E-4,-6.327465E-5,-2.9910062E-4,-1.22010424E-4,2.9119E-5],"categories":[],"categories_nodes":[],"categories_segments":[],"categories_sizes":[],"default_left":[0,0,0,0,0,0,0,0,0,0,0,0,0,0,0,0,0,0,0,0,0,0,0,0,0,0,0,0,0],"id":22,"left_children":[1,3,5,7,9,-1,-1,11,13,-1,-1,15,-1,17,19,-1,-1,-1,-1,21,23,25,27,-1,-1,-1,-1,-1,-1],"loss_changes":[4.3216106E-2,1.0202623E-2,1.00728124E-4,4.9239546E-3,8.802861E-6,0E0,0E0,4.4449717E-3,3.400741E-3,0E0,0E0,5.6757976E-4,0E0,5.5789156E-4,4.06997E-4,0E0,0E0,0E0,0E0,7.327786E-5,5.422051E-5,2.433994E-5,3.2446907E-5,0E0,0E0,0E0,0E0,0E0,0E0],"parents":[2147483647,0,0,1,1,2,2,3,3,4,4,7,7,8,8,11,11,13,13,14,14,19,19,20,20,21,21,22,22],"right_children":[2,4,6,8,10,-1,-1,12,14,-1,-1,16,-1,18,20,-1,-1,-1,-1,22,24,26,28,-1,-1,-1,-1,-1,-1],"split_conditions":[1.16949835E1,2.2715275E0,1.2418689E1,1.2412385E1,3.6047139E3,6.7741657E-4,1.7909516E-3,1.2408532E1,1.5303595E1,6.8540266E-4,2.5927485E-4,1.240643E1,-1.5961645E-3,9.739805E2,1.4221879E3,-5.6293182E-5,-6.274002E-4,-1.1724829E-3,-2.9427017E-4,1.5512661E1,1.421641E4,1.4204449E4,9.74E2,4.7614903E-6,1.88384E-4,-6.327465E-5,-2.9910062E-4,-1.22010424E-4,2.9119E-5],"split_indices":[3,10,2,2,0,0,0,2,11,0,0,2,0,5,20,0,0,0,0,11,14,14,5,0,0,0,0,0,0],"split_type":[0,0,0,0,0,0,0,0,0,0,0,0,0,0,0,0,0,0,0,0,0,0,0,0,0,0,0,0,0],"sum_hessian":[4.167143E1,3.3409184E1,8.262245E0,2.8546938E1,4.862245E0,1.805102E0,6.457143E0,1.2085714E1,1.6461224E1,2.9448981E0,1.917347E0,5.7959185E0,6.289796E0,4.3387756E0,1.2122449E1,2.2561226E0,3.5397959E0,2.6418366E0,1.6969388E0,7.830612E0,4.2918367E0,4.6663265E0,3.1642857E0,2.237755E0,2.0540817E0,1.0632653E0,3.6030612E0,1.8622448E0,1.3020408E0],"tree_param":{"num_deleted":"0","num_feature":"26","num_nodes":"29","size_leaf_vector":"1"}},{"base_weights":[-1.2365173E-3,-3.0699136E-2,4.2040024E-2,-4.9850874E-2,-1.2640016E-2,2.1812694E-2,1.839512E-3,-6.469943E-4,-1.5477194E-3,-1.6291672E-2,1.8848204E-4,5.647414E-3,2.6042946E-2,-2.5126062E-4,-1.8501028E-2,-1.0374183E-4,1.2130813E-4,4.1934567E-5,2.060125E-4,7.943489E-4,2.508091E-4,-6.493182E-4,-3.1475193E-4],"categories":[],"categories_nodes":[],"categories_segments":[],"categories_sizes":[],"default_left":[0,0,0,0,0,0,0,0,0,0,0,0,0,0,0,0,0,0,0,0,0,0,0],"id":23,"left_children":[1,3,5,7,9,11,-1,-1,-1,13,15,17,19,-1,21,-1,-1,-1,-1,-1,-1,-1,-1],"loss_changes":[5.622271E-2,8.435041E-3,7.119205E-3,5.189404E-4,6.977669E-4,6.141416E-4,0E0,0E0,0E0,2.0805048E-5,8.501943E-5,1.4427911E-5,8.559739E-5,0E0,9.38843E-6,0E0,0E0,0E0,0E0,0E0,0E0,0E0,0E0],"parents":[2147483647,0,0,1,1,2,2,3,3,4,4,5,5,9,9,10,10,11,11,12,12,14,14],"right_children":[2,4,6,8,10,12,-1,-1,-1,14,16,18,20,-1,22,-1,-1,-1,-1,-1,-1,-1,-1],"split_conditions":[7.578612E-1,6.9851327E-1,1.1695333E1,1.7471613E1,2.4513121E2,3.5971226E3,1.839512E-3,-6.469943E-4,-1.5477194E-3,2.418832E2,9.788876E2,4.0286874E2,3.611951E3,-2.5126062E-4,9.772042E2,-1.0374183E-4,1.2130813E-4,4.1934567E-5,2.060125E-4,7.943489E-4,2.508091E-4,-6.493182E-4,-3.1475193E-4],"split_indices":[25,25,3,7,9,0,0,0,0,9,5,19,0,0,5,0,0,0,0,0,0,0,0],"split_type":[0,0,0,0,0,0,0,0,0,0,0,0,0,0,0,0,0,0,0,0,0,0,0],"sum_hessian":[4.2082653E1,2.5210203E1,1.687245E1,1.1380612E1,1.3829592E1,1.0131633E1,6.740816E0,2.8061223E0,8.57449E0,1.0555102E1,3.2744899E0,2.5857143E0,7.5459185E0,3.6214285E0,6.9336734E0,1.7428572E0,1.5316327E0,1.3020408E0,1.2836735E0,6.060204E0,1.4857143E0,2.879592E0,4.0540814E0],"tree_param":{"num_deleted":"0","num_feature":"26","num_nodes":"23","size_leaf_vector":"1"}},{"base_weights":[-1.7757643E-3,-2.929156E-2,3.9905235E-2,-4.3883603E-2,-1.2421513E-2,1.8424577E-3,2.0298934E-2,-6.887751E-4,-1.4193782E-3,-1.5311326E-2,-1.7318232E-5,2.3372322E-2,1.9113615E-4,-2.99176E-4,-6.037276E-4,6.932558E-4,1.8835295E-4],"categories":[],"categories_nodes":[],"categories_segments":[],"categories_sizes":[],"default_left":[0,0,0,0,0,0,0,0,0,0,0,0,0,0,0,0,0],"id":24,"left_children":[1,3,5,7,9,-1,11,-1,-1,13,-1,15,-1,-1,-1,-1,-1],"loss_changes":[4.592435E-2,5.3832904E-3,6.758094E-3,3.96654E-4,4.190784E-4,0E0,2.759844E-4,0E0,0E0,6.026309E-5,0E0,2.1630432E-5,0E0,0E0,0E0,0E0,0E0],"parents":[2147483647,0,0,1,1,2,2,3,3,4,4,6,6,9,9,11,11],"right_children":[2,4,6,8,10,-1,12,-1,-1,14,-1,16,-1,-1,-1,-1,-1],"split_conditions":[7.578612E-1,6.9851327E-1,9.604434E2,1.7471676E1,2.4495909E2,1.8424577E-3,9.766553E2,-6.887751E-4,-1.4193782E-3,4.0707663E2,-1.7318232E-5,1.8278234E1,1.9113615E-4,-2.99176E-4,-6.037276E-4,6.932558E-4,1.8835295E-4],"split_indices":[25,25,13,7,9,0,5,0,0,19,0,7,0,0,0,0,0],"split_type":[0,0,0,0,0,0,0,0,0,0,0,0,0,0,0,0,0],"sum_hessian":[3.8023468E1,2.3082653E1,1.4940817E1,1.1518368E1,1.1564285E1,5.422449E0,9.518368E0,4.2091837E0,7.3091836E0,9.051021E0,2.5132654E0,7.152041E0,2.3663266E0,6.7581635E0,2.2928572E0,6.152041E0,1E0],"tree_param":{"num_deleted":"0","num_feature":"26","num_nodes":"17","size_leaf_vector":"1"}},{"base_weights":[2.5365234E-3,-1.5817368E-2,5.383303E-2,-3.3748962E-2,-7.653924E-3,6.708599E-4,1.6485127E-3,-1.0673915E-3,-2.4363399E-4,-9.045404E-4,-1.2390157E-3,-4.9129482E-3,3.9455818E-4,4.8408433E-4,-3.3660544E-4,-5.4937974E-3,5.236736E-3,1.1420029E-5,-2.3068656E-4,2.176058E-4,-4.7480335E-5],"categories":[],"categories_nodes":[],"categories_segments":[],"categories_sizes":[],"default_left":[0,0,0,0,0,0,0,0,0,0,0,0,0,0,0,0,0,0,0,0,0],"id":25,"left_children":[1,3,5,7,9,-1,-1,-1,-1,-1,11,13,-1,15,-1,17,19,-1,-1,-1,-1],"loss_changes":[3.9056797E-2,4.229688E-3,2.3439527E-4,6.8654586E-4,3.4960546E-3,0E0,0E0,0E0,0E0,0E0,1.1271788E-3,6.155999E-4,0E0,3.1276152E-4,0E0,8.2988656E-5,1.2003376E-4,0E0,0E0,0E0,0E0],"parents":[2147483647,0,0,1,1,2,2,3,3,4,4,10,10,11,11,13,13,15,15,16,16],"right_children":[2,4,6,8,10,-1,-1,-1,-1,-1,12,14,-1,16,-1,18,20,-1,-1,-1,-1],"split_conditions":[1.1694933E1,9.610978E2,1.2418689E1,1.2412385E1,9.739805E2,6.708599E-4,1.6485127E-3,-1.0673915E-3,-2.4363399E-4,-9.045404E-4,2.2715275E0,9.743438E1,3.9455818E-4,9.616354E2,-3.3660544E-4,1.240608E1,2.040738E2,1.1420029E-5,-2.3068656E-4,2.176058E-4,-4.7480335E-5],"split_indices":[3,13,2,2,5,0,0,0,0,0,10,4,0,13,0,2,16,0,0,0,0],"split_type":[0,0,0,0,0,0,0,0,0,0,0,0,0,0,0,0,0,0,0,0,0],"sum_hessian":[3.9579594E1,2.9659184E1,9.920408E0,8.297959E0,2.1361225E1,2.2632654E0,7.657143E0,6.620408E0,1.677551E0,3.577551E0,1.7783674E1,1.4893877E1,2.889796E0,8.995918E0,5.897959E0,3.915306E0,5.080612E0,1.5132654E0,2.4020407E0,3.6316328E0,1.4489796E0],"tree_param":{"num_deleted":"0","num_feature":"26","num_nodes":"21","size_leaf_vector":"1"}},{"base_weights":[-2.485628E-4,-2.5062624E-2,4.094602E-2,-5.0908074E-2,-1.2544185E-2,1.5715099E-3,2.0241987E-2,-1.5655912E-3,-5.1234255E-4,-1.610546E-2,3.3498644E-3,3.0603976E-4,6.9616805E-4,-6.225305E-4,-9.9622775E-3,-4.2247584E-6,1.5177317E-4,-3.2682993E-4,-9.788782E-5],"categories":[],"categories_nodes":[],"categories_segments":[],"categories_sizes":[],"default_left":[0,0,0,0,0,0,0,0,0,0,0,0,0,0,0,0,0,0,0],"id":26,"left_children":[1,3,5,7,9,-1,11,-1,-1,13,15,-1,-1,-1,17,-1,-1,-1,-1],"loss_changes":[4.2807277E-2,7.81516E-3,3.812112E-3,3.153123E-4,1.1254239E-3,0E0,8.216384E-5,0E0,0E0,3.671362E-4,3.1935368E-5,0E0,0E0,0E0,6.5582804E-5,0E0,0E0,0E0,0E0],"parents":[2147483647,0,0,1,1,2,2,3,3,4,4,6,6,9,9,10,10,14,14],"right_children":[2,4,6,8,10,-1,12,-1,-1,14,16,-1,-1,-1,18,-1,-1,-1,-1],"split_conditions":[7.578612E-1,6.7633915E-1,9.606577E2,3.4867747E3,7.394356E-1,1.5715099E-3,7.9680216E-1,-1.5655912E-3,-5.1234255E-4,7.1109927E-1,4.3606906E2,3.0603976E-4,6.9616805E-4,-6.225305E-4,1.423211E3,-4.2247584E-6,1.5177317E-4,-3.2682993E-4,-9.788782E-5],"split_indices":[25,25,13,1,25,0,25,0,0,25,12,0,0,0,20,0,0,0,0],"split_type":[0,0,0,0,0,0,0,0,0,0,0,0,0,0,0,0,0,0,0],"sum_hessian":[3.987347E1,2.512857E1,1.4744898E1,7.1989794E0,1.7929592E1,7.520408E0,7.2244897E0,5.6214285E0,1.577551E0,1.4636735E1,3.2928572E0,3.512245E0,3.712245E0,6.0163264E0,8.620408E0,1.5683674E0,1.7244898E0,6.180612E0,2.439796E0],"tree_param":{"num_deleted":"0","num_feature":"26","num_nodes":"19","size_leaf_vector":"1"}},{"base_weights":[2.4769636E-4,-1.6758269E-2,5.3169556E-2,-4.02213E-2,-4.315867E-3,6.641356E-4,1.6360674E-3,-4.9184397E-2,-3.0472633E-4,-1.0469873E-2,5.3898414E-4,-1.6130116E-3,-6.50913E-4,-5.27381E-3,-8.217359E-4,-1.0397941E-2,2.9446846E-3,-3.9289025E-5,-1.1878525E-2,6.7908904E-3,-1.298951E-4,-3.7180624E-4,-1.1043223E-4,2.8497136E-5,2.4155325E-4],"categories":[],"categories_nodes":[],"categories_segments":[],"categories_sizes":[],"default_left":[0,0,0,0,0,0,0,0,0,0,0,0,0,0,0,0,0,0,0,0,0,0,0,0,0],"id":27,"left_children":[1,3,5,7,9,-1,-1,11,-1,13,-1,-1,-1,15,-1,17,19,-1,21,23,-1,-1,-1,-1,-1],"loss_changes":[3.7906226E-2,9.13531E-3,2.0105392E-4,2.338782E-3,3.3857864E-3,0E0,0E0,4.2778067E-4,0E0,1.6165585E-3,0E0,0E0,0E0,6.7829393E-4,0E0,1.1243054E-4,2.2651818E-4,0E0,3.862055E-5,4.2541185E-5,0E0,0E0,0E0,0E0,0E0],"parents":[2147483647,0,0,1,1,2,2,3,3,4,4,7,7,9,9,13,13,15,15,16,16,18,18,19,19],"right_children":[2,4,6,8,10,-1,-1,12,-1,14,-1,-1,-1,16,-1,18,20,-1,22,24,-1,-1,-1,-1,-1],"split_conditions":[1.16949835E1,9.6076556E2,1.241904E1,1.2412035E1,9.622213E2,6.641356E-4,1.6360674E-3,1.5488435E1,-3.0472633E-4,9.620744E2,5.3898414E-4,-1.6130116E-3,-6.50913E-4,9.616519E2,-8.217359E-4,1.240643E1,3.4876667E3,-3.9289025E-5,1.8137104E1,4.0286874E2,-1.298951E-4,-3.7180624E-4,-1.1043223E-4,2.8497136E-5,2.4155325E-4],"split_indices":[3,13,2,2,13,0,0,11,0,13,0,0,0,13,0,2,1,0,7,19,0,0,0,0,0],"split_type":[0,0,0,0,0,0,0,0,0,0,0,0,0,0,0,0,0,0,0,0,0,0,0,0,0],"sum_hessian":[4.012857E1,3.0886734E1,9.241837E0,9.929592E0,2.0957144E1,2.2357142E0,7.0061226E0,7.087755E0,2.8418367E0,1.7058163E1,3.8989797E0,4.4285717E0,2.6591835E0,1.4379592E1,2.6785715E0,8.693877E0,5.6857142E0,1.5040817E0,7.189796E0,3.8418367E0,1.8438776E0,5.5387754E0,1.6510204E0,1.3020408E0,2.5397959E0],"tree_param":{"num_deleted":"0","num_feature":"26","num_nodes":"25","size_leaf_vector":"1"}},{"base_weights":[1.0334725E-3,-2.3304556E-2,3.531579E-2,-3.4534134E-2,-6.144181E-3,2.027197E-2,1.5489666E-3,-1.2679915E-3,-2.1069476E-2,7.244068E-5,-8.512615E-3,6.766299E-4,2.1212269E-4,-6.714637E-4,-2.7779592E-4,-3.0349693E-4,-1.0344579E-4],"categories":[],"categories_nodes":[],"categories_segments":[],"categories_sizes":[],"default_left":[0,0,0,0,0,0,0,0,0,0,0,0,0,0,0,0,0],"id":28,"left_children":[1,3,5,7,9,11,-1,-1,13,-1,15,-1,-1,-1,-1,-1,-1],"loss_changes":[3.8119085E-2,4.9414635E-3,4.5832675E-3,1.3546683E-3,2.6593762E-4,4.2977184E-4,0E0,0E0,5.259784E-5,0E0,6.6572335E-5,0E0,0E0,0E0,0E0,0E0,0E0],"parents":[2147483647,0,0,1,1,2,2,3,3,4,4,5,5,8,8,10,10],"right_children":[2,4,6,8,10,12,-1,-1,14,-1,16,-1,-1,-1,-1,-1,-1],"split_conditions":[7.578612E-1,7.1109927E-1,1.1695333E1,1.5405846E1,4.153253E1,9.5684735E2,1.5489666E-3,-1.2679915E-3,4.9770174E0,7.244068E-5,9.616354E2,6.766299E-4,2.1212269E-4,-6.714637E-4,-2.7779592E-4,-3.0349693E-4,-1.0344579E-4],"split_indices":[25,25,3,11,24,6,0,0,8,0,13,0,0,0,0,0,0],"split_type":[0,0,0,0,0,0,0,0,0,0,0,0,0,0,0,0,0],"sum_hessian":[4.37E1,2.5743877E1,1.7956123E1,1.4948979E1,1.0794898E1,1.1397959E1,6.558163E0,6.997959E0,7.9510202E0,2.2836735E0,8.511225E0,8.031632E0,3.3663266E0,5.3918366E0,2.5591836E0,4.896939E0,3.6142857E0],"tree_param":{"num_deleted":"0","num_feature":"26","num_nodes":"17","size_leaf_vector":"1"}},{"base_weights":[3.1495758E-5,-2.2799505E-2,3.513128E-2,-3.6362134E-2,-6.3540475E-3,1.8089473E-2,1.4893912E-3,-4.2538717E-2,-5.103347E-4,-1.0087444E-2,1.8727421E-3,7.3045935E-3,2.281205E-2,-1.3599369E-3,-6.1776285E-4,-1.1423376E-2,-6.3029926E-5,1.349909E-4,-7.117944E-5,2.1838463E-5,2.6569908E-4,6.883421E-4,1.653918E-4,-9.624897E-5,-3.413761E-4],"categories":[],"categories_nodes":[],"categories_segments":[],"categories_sizes":[],"default_left":[0,0,0,0,0,0,0,0,0,0,0,0,0,0,0,0,0,0,0,0,0,0,0,0,0],"id":29,"left_children":[1,3,5,7,9,11,-1,13,-1,15,17,19,21,-1,-1,23,-1,-1,-1,-1,-1,-1,-1,-1,-1],"loss_changes":[3.764896E-2,6.118186E-3,4.7367215E-3,9.48498E-4,4.5126711E-4,3.9575505E-4,0E0,2.5328994E-4,0E0,7.729698E-5,8.043369E-5,6.149869E-5,7.066643E-5,0E0,0E0,8.185394E-6,0E0,0E0,0E0,0E0,0E0,0E0,0E0,0E0,0E0],"parents":[2147483647,0,0,1,1,2,2,3,3,4,4,5,5,7,7,9,9,10,10,11,11,12,12,15,15],"right_children":[2,4,6,8,10,12,-1,14,-1,16,18,20,22,-1,-1,24,-1,-1,-1,-1,-1,-1,-1,-1,-1],"split_conditions":[7.578612E-1,7.1109927E-1,1.1695282E1,3.4867747E3,2.4499425E2,7.8013444E-1,1.4893912E-3,1.5488435E1,-5.103347E-4,3.4858926E3,1.2743824E1,9.663784E1,3.6082385E3,-1.3599369E-3,-6.1776285E-4,2.3859839E2,-6.3029926E-5,1.349909E-4,-7.117944E-5,2.1838463E-5,2.6569908E-4,6.883421E-4,1.653918E-4,-9.624897E-5,-3.413761E-4],"split_indices":[25,25,3,1,9,25,0,11,0,1,2,4,0,0,0,9,0,0,0,0,0,0,0,0,0],"split_type":[0,0,0,0,0,0,0,0,0,0,0,0,0,0,0,0,0,0,0,0,0,0,0,0,0],"sum_hessian":[4.4981632E1,2.7466326E1,1.7515306E1,1.4388776E1,1.3077551E1,1.0041837E1,7.4734693E0,9.729591E0,4.6591835E0,8.839796E0,4.2377553E0,3.8336735E0,6.2081633E0,6.4561224E0,3.2734694E0,7.1612244E0,1.6785715E0,2.4857144E0,1.7520409E0,1.3020408E0,2.5316327E0,5.2081633E0,1E0,1.1091837E0,6.052041E0],"tree_param":{"num_deleted":"0","num_feature":"26","num_nodes":"25","size_leaf_vector":"1"}},{"base_weights":[-1.5102314E-4,-2.1825716E-2,3.5559922E-2,-3.7357137E-2,-6.786224E-3,1.8769171E-2,1.5011004E-3,-5.2228937E-4,-1.2331154E-3,-9.650926E-3,2.294499E-4,2.0948904E-2,1.1622391E-4,-3.0147604E-4,-6.192445E-5,1.399344E-4,-9.3953735E-5,6.204976E-4,1.6307617E-4],"categories":[],"categories_nodes":[],"categories_segments":[],"categories_sizes":[],"default_left":[0,0,0,0,0,0,0,0,0,0,0,0,0,0,0,0,0,0,0],"id":30,"left_children":[1,3,5,7,9,11,-1,-1,-1,13,15,17,-1,-1,-1,-1,-1,-1,-1],"loss_changes":[3.446669E-2,6.2182117E-3,4.0918104E-3,8.5444003E-4,3.0966994E-4,2.3974804E-4,0E0,0E0,0E0,6.6570705E-5,1.0928509E-4,2.9929448E-5,0E0,0E0,0E0,0E0,0E0,0E0,0E0],"parents":[2147483647,0,0,1,1,2,2,3,3,4,4,5,5,9,9,10,10,11,11],"right_children":[2,4,6,8,10,12,-1,-1,-1,14,16,18,-1,-1,-1,-1,-1,-1,-1],"split_conditions":[7.578612E-1,7.1109927E-1,1.1695282E1,1.2408532E1,2.4499425E2,1.2500916E1,1.5011004E-3,-5.2228937E-4,-1.2331154E-3,3.4858926E3,1.2743824E1,1.8278234E1,1.1622391E-4,-3.0147604E-4,-6.192445E-5,1.399344E-4,-9.3953735E-5,6.204976E-4,1.6307617E-4],"split_indices":[25,25,3,2,9,2,0,0,0,1,2,7,0,0,0,0,0,0,0],"split_type":[0,0,0,0,0,0,0,0,0,0,0,0,0,0,0,0,0,0,0],"sum_hessian":[4.252653E1,2.6706123E1,1.5820408E1,1.2408163E1,1.4297959E1,9.253061E0,6.567347E0,4.2642856E0,8.143878E0,9.885715E0,4.412245E0,7.6755104E0,1.5775511E0,8.207143E0,1.6785715E0,1.7244898E0,2.687755E0,6.6755104E0,1E0],"tree_param":{"num_deleted":"0","num_feature":"26","num_nodes":"19","size_leaf_vector":"1"}},{"base_weights":[1.1245543E-3,-1.8944813E-2,4.380847E-2,-3.309625E-2,-3.9112754E-3,1.4836771E-3,7.0505467E-4,-1.1679297E-3,-1.9707529E-2,-8.758615E-3,7.0762318E-3,-6.1900844E-4,-2.1299494E-4,-2.944649E-4,-1.1909612E-4,2.5418174E-4,5.6525136E-5],"categories":[],"categories_nodes":[],"categories_segments":[],"categories_sizes":[],"default_left":[0,0,0,0,0,0,0,0,0,0,0,0,0,0,0,0,0],"id":31,"left_children":[1,3,5,7,9,-1,-1,-1,11,13,15,-1,-1,-1,-1,-1,-1],"loss_changes":[3.752382E-2,6.2175505E-3,1.0599606E-3,9.35182E-4,8.928369E-4,0E0,0E0,0E0,6.0092658E-5,4.453864E-5,3.5617646E-5,0E0,0E0,0E0,0E0,0E0,0E0],"parents":[2147483647,0,0,1,1,2,2,3,3,4,4,8,8,9,9,10,10],"right_children":[2,4,6,8,10,-1,-1,-1,12,14,16,-1,-1,-1,-1,-1,-1],"split_conditions":[7.9261684E-1,7.1059626E-1,9.605166E2,6.7633915E-1,7.394356E-1,1.4836771E-3,7.0505467E-4,-1.1679297E-3,1.2840807E1,1.4220415E3,1.5376599E1,-6.1900844E-4,-2.1299494E-4,-2.944649E-4,-1.1909612E-4,2.5418174E-4,5.6525136E-5],"split_indices":[25,25,13,25,25,0,0,0,2,20,11,0,0,0,0,0,0],"split_type":[0,0,0,0,0,0,0,0,0,0,0,0,0,0,0,0,0],"sum_hessian":[4.1834694E1,2.8833673E1,1.300102E1,1.4233673E1,1.46E1,7.4734693E0,5.527551E0,7.3734694E0,6.860204E0,1.0271428E1,4.3285713E0,5.0346937E0,1.8255103E0,6.428571E0,3.8428571E0,2.5316327E0,1.7969388E0],"tree_param":{"num_deleted":"0","num_feature":"26","num_nodes":"17","size_leaf_vector":"1"}},{"base_weights":[-7.995779E-4,4.8164792E-2,-1.4288711E-2,5.1709387E-4,1.4753812E-3,-2.4983652E-2,3.7072436E-3,-1.0097908E-2,-4.0248245E-2,-4.551968E-3,5.3069805E-4,1.5646449E-4,-1.4471478E-2,-4.3694533E-2,-3.717636E-4,1.0430853E-4,-6.547674E-3,-4.771111E-3,-1.9711869E-2,-4.141153E-4,-1.3218455E-3,-2.1544643E-4,-9.117337E-5,-2.4813923E-4,6.401339E-5,-1.969666E-4,-6.423608E-4],"categories":[],"categories_nodes":[],"categories_segments":[],"categories_sizes":[],"default_left":[0,0,0,0,0,0,0,0,0,0,0,0,0,0,0,0,0,0,0,0,0,0,0,0,0,0,0],"id":32,"left_children":[1,3,5,-1,-1,7,9,11,13,15,-1,-1,17,19,-1,-1,21,23,25,-1,-1,-1,-1,-1,-1,-1,-1],"loss_changes":[2.8393617E-2,2.7578324E-4,6.570662E-3,0E0,0E0,4.4200197E-3,1.7758157E-3,9.1019913E-4,3.6348403E-4,1.814743E-4,0E0,0E0,4.006473E-4,1.7183647E-4,0E0,0E0,5.23607E-6,1.568991E-4,8.423184E-5,0E0,0E0,0E0,0E0,0E0,0E0,0E0,0E0],"parents":[2147483647,0,0,1,1,2,2,5,5,6,6,7,7,8,8,9,9,12,12,13,13,16,16,17,17,18,18],"right_children":[2,4,6,-1,-1,8,10,12,14,16,-1,-1,18,20,-1,-1,22,24,26,-1,-1,-1,-1,-1,-1,-1,-1],"split_conditions":[9.5508124E2,1.241904E1,3.633344E2,5.1709387E-4,1.4753812E-3,2.0401778E2,9.567635E2,2.0100078E2,3.4867747E3,9.5559045E2,5.3069805E-4,1.5646449E-4,4.1535206E1,1.2408532E1,-3.717636E-4,1.0430853E-4,9.5670776E2,4.9794827E0,3.5973193E3,-4.141153E-4,-1.3218455E-3,-2.1544643E-4,-9.117337E-5,-2.4813923E-4,6.401339E-5,-1.969666E-4,-6.423608E-4],"split_indices":[6,2,17,0,0,16,6,16,1,6,0,0,24,2,0,0,6,8,0,0,0,0,0,0,0,0,0],"split_type":[0,0,0,0,0,0,0,0,0,0,0,0,0,0,0,0,0,0,0,0,0,0,0,0,0,0,0],"sum_hessian":[4.0946938E1,8.288775E0,3.2658165E1,1.7683673E0,6.520408E0,2.0240816E1,1.2417347E1,1.1088776E1,9.1520405E0,8.509184E0,3.9081633E0,2.357143E0,8.731632E0,7.565306E0,1.5867347E0,1.4846939E0,7.02449E0,3.7326531E0,4.9989796E0,1.3846939E0,6.180612E0,4.217347E0,2.8071427E0,2.2010205E0,1.5316327E0,1.660204E0,3.3387756E0],"tree_param":{"num_deleted":"0","num_feature":"26","num_nodes":"27","size_leaf_vector":"1"}},{"base_weights":[-2.0359505E-3,-1.937285E-2,4.322311E-2,-3.4522813E-2,-3.8220205E-3,6.436923E-4,1.5118327E-3,-1.301236E-3,-2.4440087E-2,-9.066628E-3,4.422022E-3,-2.5437103E-4,-7.2523195E-4,-3.206991E-4,-1.1133382E-4,-3.8544092E-4,2.1906984E-4,-7.9901605E-5,5.6086024E-5],"categories":[],"categories_nodes":[],"categories_segments":[],"categories_sizes":[],"default_left":[0,0,0,0,0,0,0,0,0,0,0,0,0,0,0,0,0,0,0],"id":33,"left_children":[1,3,5,7,9,-1,-1,-1,11,13,15,-1,-1,-1,-1,17,-1,-1,-1],"loss_changes":[3.3757497E-2,7.1774926E-3,1.3586618E-3,7.427018E-4,7.506759E-4,0E0,0E0,0E0,1.7299317E-6,8.0487574E-5,1.18515236E-4,0E0,0E0,0E0,0E0,2.8587381E-5,0E0,0E0,0E0],"parents":[2147483647,0,0,1,1,2,2,3,3,4,4,8,8,9,9,10,10,15,15],"right_children":[2,4,6,8,10,-1,-1,-1,12,14,16,-1,-1,-1,-1,18,-1,-1,-1],"split_conditions":[7.9261684E-1,7.1109927E-1,8.582799E-1,6.513616E-1,7.394356E-1,6.436923E-4,1.5118327E-3,-1.301236E-3,1.2407131E1,1.4220415E3,9.616562E2,-2.5437103E-4,-7.2523195E-4,-3.206991E-4,-1.1133382E-4,1.4223418E4,2.1906984E-4,-7.9901605E-5,5.6086024E-5],"split_indices":[25,25,25,25,25,0,0,0,2,20,13,0,0,0,0,14,0,0,0],"split_type":[0,0,0,0,0,0,0,0,0,0,0,0,0,0,0,0,0,0,0],"sum_hessian":[4.09551E1,3.002551E1,1.0929592E1,1.45908165E1,1.5434694E1,4.8857145E0,6.0438776E0,5.0255103E0,9.565306E0,9.372449E0,6.062245E0,1.4581633E0,8.107142E0,5.5295916E0,3.8428571E0,2.879592E0,3.182653E0,1.3204081E0,1.5591837E0],"tree_param":{"num_deleted":"0","num_feature":"26","num_nodes":"19","size_leaf_vector":"1"}},{"base_weights":[3.5977154E-4,-1.8800583E-2,2.850602E-2,-3.1040672E-2,-4.91632E-3,1.3183393E-2,1.1719936E-3,-1.1864055E-3,-1.9563694E-2,-8.380633E-3,9.2820404E-4,7.505726E-5,4.3500442E-4,-6.113486E-4,-1.9071864E-4,-9.2157675E-3,-8.8968925E-5,1.313344E-4,-8.063102E-5,-8.101778E-5,-2.7689824E-4],"categories":[],"categories_nodes":[],"categories_segments":[],"categories_sizes":[],"default_left":[0,0,0,0,0,0,0,0,0,0,0,0,0,0,0,0,0,0,0,0,0],"id":34,"left_children":[1,3,5,7,9,11,-1,-1,13,15,17,-1,-1,-1,-1,19,-1,-1,-1,-1,-1],"loss_changes":[2.5102884E-2,4.5559006E-3,3.3039264E-3,1.0614861E-3,2.9467017E-4,2.1125376E-4,0E0,0E0,1.1413614E-4,9.8077E-6,1.0195098E-4,0E0,0E0,0E0,0E0,2.1501328E-6,0E0,0E0,0E0,0E0,0E0],"parents":[2147483647,0,0,1,1,2,2,3,3,4,4,5,5,8,8,9,9,10,10,15,15],"right_children":[2,4,6,8,10,12,-1,-1,14,16,18,-1,-1,-1,-1,20,-1,-1,-1,-1,-1],"split_conditions":[7.578612E-1,7.1109927E-1,1.1695033E1,1.530541E1,2.4499425E2,4.0286874E2,1.1719936E-3,-1.1864055E-3,1.817055E1,1.8040306E1,1.2743824E1,7.505726E-5,4.3500442E-4,-6.113486E-4,-1.9071864E-4,1.5331808E1,-8.8968925E-5,1.313344E-4,-8.063102E-5,-8.101778E-5,-2.7689824E-4],"split_indices":[25,25,3,11,9,19,0,0,7,7,2,0,0,0,0,11,0,0,0,0,0],"split_type":[0,0,0,0,0,0,0,0,0,0,0,0,0,0,0,0,0,0,0,0,0],"sum_hessian":[4.455408E1,2.6706123E1,1.784796E1,1.3536735E1,1.3169388E1,9.235714E0,8.612245E0,5.457143E0,8.079592E0,7.9959183E0,5.1734695E0,2.0816326E0,7.154082E0,6.2540817E0,1.8255103E0,6.22551E0,1.7704082E0,2.4857144E0,2.687755E0,1.1091837E0,5.1163263E0],"tree_param":{"num_deleted":"0","num_feature":"26","num_nodes":"21","size_leaf_vector":"1"}},{"base_weights":[-3.0683095E-3,-2.0265197E-2,3.6176186E-2,-4.0011812E-2,-1.031202E-2,2.0935947E-2,1.3772675E-3,-1.2130953E-3,-3.9159678E-4,-1.2997036E-2,6.612868E-4,6.3424767E-4,1.2839079E-4,-1.7738085E-2,-8.256192E-3,9.566974E-5,-7.899057E-5,-5.604909E-4,-1.8726819E-4,-9.119389E-3,-7.761408E-5,-7.982504E-5,-2.706342E-4],"categories":[],"categories_nodes":[],"categories_segments":[],"categories_sizes":[],"default_left":[0,0,0,0,0,0,0,0,0,0,0,0,0,0,0,0,0,0,0,0,0,0,0],"id":35,"left_children":[1,3,5,7,9,11,-1,-1,-1,13,15,-1,-1,17,19,-1,-1,-1,-1,21,-1,-1,-1],"loss_changes":[2.9352294E-2,5.5085123E-3,1.6036108E-3,2.346849E-4,6.3845236E-4,1.1655432E-4,0E0,0E0,0E0,2.406754E-4,5.9095844E-5,0E0,0E0,6.1093364E-5,2.434646E-5,0E0,0E0,0E0,0E0,1.9552535E-6,0E0,0E0,0E0],"parents":[2147483647,0,0,1,1,2,2,3,3,4,4,5,5,9,9,10,10,13,13,14,14,19,19],"right_children":[2,4,6,8,10,12,-1,-1,-1,14,16,-1,-1,18,20,-1,-1,-1,-1,22,-1,-1,-1],"split_conditions":[7.8013444E-1,6.7633915E-1,8.5144186E-1,9.7749855E1,7.394356E-1,1.8135122E1,1.3772675E-3,-1.2130953E-3,-3.9159678E-4,7.1109927E-1,1.5450849E1,6.3424767E-4,1.2839079E-4,1.2840807E1,4.994275E0,9.566974E-5,-7.899057E-5,-5.604909E-4,-1.8726819E-4,9.605991E2,-7.761408E-5,-7.982504E-5,-2.706342E-4],"split_indices":[25,25,25,4,25,7,0,0,0,25,11,0,0,2,8,0,0,0,0,13,0,0,0],"split_type":[0,0,0,0,0,0,0,0,0,0,0,0,0,0,0,0,0,0,0,0,0,0,0],"sum_hessian":[4.1406124E1,2.912653E1,1.2279592E1,8.74898E0,2.037755E1,6.857143E0,5.422449E0,7.1714287E0,1.577551E0,1.6223469E1,4.154082E0,5.857143E0,1E0,6.740816E0,9.482653E0,2.3295918E0,1.8244898E0,4.915306E0,1.8255103E0,7.620408E0,1.8622448E0,1.1091837E0,6.5112243E0],"tree_param":{"num_deleted":"0","num_feature":"26","num_nodes":"23","size_leaf_vector":"1"}},{"base_weights":[5.7173765E-4,-2.109828E-2,2.4672084E-2,-3.239247E-2,-8.42254E-3,9.134153E-3,1.2876407E-3,-4.4410402E-4,-1.0119106E-3,-9.986354E-3,-9.575947E-5,1.6972931E-3,3.3584257E-4,-7.864985E-5,-2.996314E-4,-4.857542E-5,9.9813915E-5],"categories":[],"categories_nodes":[],"categories_segments":[],"categories_sizes":[],"default_left":[0,0,0,0,0,0,0,0,0,0,0,0,0,0,0,0,0],"id":36,"left_children":[1,3,5,7,9,11,-1,-1,-1,13,-1,15,-1,-1,-1,-1,-1],"loss_changes":[2.156155E-2,2.8413888E-3,6.0500233E-3,1.176307E-4,5.6602585E-5,2.4652912E-4,0E0,0E0,0E0,1.2610923E-5,0E0,3.598833E-5,0E0,0E0,0E0,0E0,0E0],"parents":[2147483647,0,0,1,1,2,2,3,3,4,4,5,5,9,9,11,11],"right_children":[2,4,6,8,10,12,-1,-1,-1,14,-1,16,-1,-1,-1,-1,-1],"split_conditions":[7.394356E-1,6.9851327E-1,1.1695033E1,1.2408182E1,1.4223738E3,4.0286874E2,1.2876407E-3,-4.4410402E-4,-1.0119106E-3,2.3859839E2,-9.575947E-5,9.788876E2,3.3584257E-4,-7.864985E-5,-2.996314E-4,-4.857542E-5,9.9813915E-5],"split_indices":[25,25,3,2,20,19,0,0,0,9,0,5,0,0,0,0,0],"split_type":[0,0,0,0,0,0,0,0,0,0,0,0,0,0,0,0,0],"sum_hessian":[3.9288776E1,2.0753061E1,1.8535715E1,1.01520405E1,1.0601021E1,1.1546939E1,6.9887757E0,2.8428571E0,7.3091836E0,7.317347E0,3.2836735E0,3.65E0,7.896939E0,1.1091837E0,6.2081633E0,1.3112245E0,2.3387756E0],"tree_param":{"num_deleted":"0","num_feature":"26","num_nodes":"17","size_leaf_vector":"1"}},{"base_weights":[1.8314485E-3,-1.1349383E-2,4.0320575E-2,-3.3088874E-2,-2.6791408E-3,5.512451E-4,1.2860725E-3,-3.6825992E-2,-9.233333E-5,-8.014445E-3,1.5615159E-2,-4.4279912E-4,-1.1587295E-3,-7.2460953E-4,-4.788931E-3,5.080551E-4,1.9157528E-4,1.3904886E-4,-6.5961247E-3,-7.812401E-3,8.1345286E-5,-7.6997196E-5,-9.311317E-3,-6.9001064E-5,-2.8522752E-4],"categories":[],"categories_nodes":[],"categories_segments":[],"categories_sizes":[],"default_left":[0,0,0,0,0,0,0,0,0,0,0,0,0,0,0,0,0,0,0,0,0,0,0,0,0],"id":37,"left_children":[1,3,5,7,9,-1,-1,11,-1,13,15,-1,-1,-1,17,-1,-1,-1,19,21,-1,-1,23,-1,-1],"loss_changes":[2.2193115E-2,6.073902E-3,3.863927E-4,9.065801E-4,2.5127009E-3,0E0,0E0,1.21754594E-4,0E0,1.0054017E-3,5.9556914E-6,0E0,0E0,0E0,3.4705826E-4,0E0,0E0,0E0,2.0148774E-4,8.0529775E-5,0E0,0E0,3.706629E-5,0E0,0E0],"parents":[2147483647,0,0,1,1,2,2,3,3,4,4,7,7,9,9,10,10,14,14,18,18,19,19,22,22],"right_children":[2,4,6,8,10,-1,-1,12,-1,14,16,-1,-1,-1,18,-1,-1,-1,20,22,-1,-1,24,-1,-1],"split_conditions":[1.16949835E1,9.6076556E2,1.241904E1,1.2412385E1,9.626E2,5.512451E-4,1.2860725E-3,1.2408882E1,-9.233333E-5,9.732549E2,3.6047139E3,-4.4279912E-4,-1.1587295E-3,-7.2460953E-4,2.0100078E2,5.080551E-4,1.9157528E-4,1.3904886E-4,1.1694834E1,4.022502E2,8.1345286E-5,-7.6997196E-5,1.240643E1,-6.9001064E-5,-2.8522752E-4],"split_indices":[3,13,2,2,13,0,0,2,0,5,0,0,0,0,16,0,0,0,3,19,0,0,2,0,0],"split_type":[0,0,0,0,0,0,0,0,0,0,0,0,0,0,0,0,0,0,0,0,0,0,0,0,0],"sum_hessian":[4.1843876E1,3.1694899E1,1.0148979E1,8.233673E0,2.3461224E1,3.1336734E0,7.015306E0,7.1061225E0,1.1275511E0,1.859898E1,4.862245E0,2.0632653E0,5.042857E0,1.7704082E0,1.6828571E1,2.9448981E0,1.917347E0,2.357143E0,1.4471429E1,1.2986734E1,1.4846939E0,3.6142857E0,9.372449E0,1.494898E0,7.877551E0],"tree_param":{"num_deleted":"0","num_feature":"26","num_nodes":"25","size_leaf_vector":"1"}},{"base_weights":[4.3520745E-4,-1.0674248E-2,3.7556488E-2,-1.5787749E-2,1.55076785E-2,1.1204222E-3,3.530567E-4,-2.774337E-2,-1.0160361E-2,4.7410704E-4,1.1920917E-4,-1.2747653E-2,-1.0261781E-3,-5.0612777E-3,-1.9534074E-2,-4.1580547E-4,-9.096324E-5,6.107751E-5,-6.5600676E-3,-6.58436E-4,-1.0225828E-4,-2.783211E-4,-2.778001E-3,-4.643097E-3,9.346063E-5,-5.8453385E-5,-1.570366E-4],"categories":[],"categories_nodes":[],"categories_segments":[],"categories_sizes":[],"default_left":[0,0,0,0,0,0,0,0,0,0,0,0,0,0,0,0,0,0,0,0,0,0,0,0,0,0,0],"id":38,"left_children":[1,3,5,7,9,-1,-1,11,13,-1,-1,15,-1,17,19,-1,-1,-1,21,-1,-1,-1,23,25,-1,-1,-1],"loss_changes":[1.7703896E-2,4.672477E-3,1.0178704E-4,1.6129105E-3,2.2608903E-5,0E0,0E0,6.5939454E-4,8.9185475E-4,0E0,0E0,4.515599E-5,0E0,1.7468922E-4,3.5378942E-4,0E0,0E0,0E0,1.3206009E-4,0E0,0E0,0E0,9.856917E-5,3.0907831E-6,0E0,0E0,0E0],"parents":[2147483647,0,0,1,1,2,2,3,3,4,4,7,7,8,8,11,11,13,13,14,14,18,18,22,22,23,23],"right_children":[2,4,6,8,10,-1,-1,12,14,-1,-1,16,-1,18,20,-1,-1,-1,22,-1,-1,-1,24,26,-1,-1,-1],"split_conditions":[1.16949835E1,9.6251074E2,2.0563968E2,9.60647E2,3.611951E3,1.1204222E-3,3.530567E-4,2.0596663E2,4.3727878E2,4.7410704E-4,1.1920917E-4,1.2412735E1,-1.0261781E-3,4.153253E1,9.5710913E2,-4.1580547E-4,-9.096324E-5,6.107751E-5,9.616354E2,-6.58436E-4,-1.0225828E-4,-2.783211E-4,1.4220415E3,9.620414E2,9.346063E-5,-5.8453385E-5,-1.570366E-4],"split_indices":[3,13,16,13,0,0,0,16,12,0,0,2,0,24,6,0,0,0,13,0,0,0,20,13,0,0,0],"split_type":[0,0,0,0,0,0,0,0,0,0,0,0,0,0,0,0,0,0,0,0,0,0,0,0,0,0,0],"sum_hessian":[4.095714E1,3.207143E1,8.885715E0,2.7163265E1,4.908163E0,7.5387754E0,1.3469387E0,7.4357142E0,1.972755E1,3.9081633E0,1E0,3.6765306E0,3.7591836E0,1.3774489E1,5.953061E0,2.5489795E0,1.1275511E0,2.2836735E0,1.1490816E1,4.37551E0,1.577551E0,5.2081633E0,6.282653E0,4.9989796E0,1.2836735E0,2.237755E0,2.7612245E0],"tree_param":{"num_deleted":"0","num_feature":"26","num_nodes":"27","size_leaf_vector":"1"}},{"base_weights":[3.7713496E-3,4.048855E-2,-8.711559E-3,1.2416356E-3,4.0074493E-4,-1.2245202E-3,-3.090421E-3,-8.427104E-3,1.3955627E-2,-2.6907371E-3,-1.23824375E-2,1.3755847E-4,4.63537E-4,1.4322391E-4,-5.7858983E-3,-1.3642771E-2,1.6199345E-5,-2.2437399E-4,-1.5110337E-3,-6.7505985E-5,-1.510946E-2,-7.419664E-5,7.0514743E-6,-4.6922528E-4,-1.4613876E-4],"categories":[],"categories_nodes":[],"categories_segments":[],"categories_sizes":[],"default_left":[0,0,0,0,0,0,0,0,0,0,0,0,0,0,0,0,0,0,0,0,0,0,0,0,0],"id":39,"left_children":[1,3,5,-1,-1,-1,7,9,11,13,15,-1,-1,-1,17,19,-1,-1,21,-1,23,-1,-1,-1,-1],"loss_changes":[1.8468272E-2,3.9527565E-4,5.833509E-3,0E0,0E0,0E0,2.592158E-3,4.5086606E-4,7.9964055E-5,2.7087962E-4,2.0968216E-4,0E0,0E0,0E0,6.045369E-5,1.4970731E-4,0E0,0E0,8.382418E-6,0E0,7.2390074E-5,0E0,0E0,0E0,0E0],"parents":[2147483647,0,0,1,1,2,2,6,6,7,7,8,8,9,9,10,10,14,14,15,15,18,18,20,20],"right_children":[2,4,6,-1,-1,-1,8,10,12,14,16,-1,-1,-1,18,20,-1,-1,22,-1,24,-1,-1,-1,-1],"split_conditions":[9.5508124E2,9.605166E2,4.1532085E1,1.2416356E-3,4.0074493E-4,-1.2245202E-3,2.2715275E0,3.6043223E3,3.4785603E3,3.576841E2,4.0789645E2,1.3755847E-4,4.63537E-4,1.4322391E-4,9.616354E2,1.4168739E4,1.6199345E-5,-2.2437399E-4,1.5510625E1,-6.7505985E-5,4.999206E0,-7.419664E-5,7.0514743E-6,-4.6922528E-4,-1.4613876E-4],"split_indices":[6,13,24,0,0,0,10,0,1,17,19,0,0,0,13,14,0,0,11,0,8,0,0,0,0],"split_type":[0,0,0,0,0,0,0,0,0,0,0,0,0,0,0,0,0,0,0,0,0,0,0,0,0],"sum_hessian":[3.852449E1,9.205102E0,2.9319387E1,7.4183674E0,1.7867347E0,3.117347E0,2.6202042E1,2.0339796E1,5.862245E0,8.986734E0,1.1353061E1,1.9540817E0,3.9081633E0,2.3663266E0,6.620408E0,1.029898E1,1.0540817E0,3.7775512E0,2.8428571E0,1.494898E0,8.804082E0,1.4214286E0,1.4214286E0,6.9510202E0,1.8530612E0],"tree_param":{"num_deleted":"0","num_feature":"26","num_nodes":"25","size_leaf_vector":"1"}},{"base_weights":[-1.2300067E-4,-1.4535559E-2,3.583185E-2,-2.691447E-2,-3.4052988E-3,1.689973E-2,1.2729228E-3,-9.792637E-4,-1.4789262E-2,-7.497206E-3,3.7482851E-3,5.2382756E-4,1.156143E-4,-1.8333645E-4,-4.960299E-4,-8.382277E-3,-4.1278512E-5,5.920664E-3,-4.955979E-5,-9.056873E-3,-9.011273E-5,5.7095913E-5,1.960961E-4,-2.727331E-4,-8.708804E-5],"categories":[],"categories_nodes":[],"categories_segments":[],"categories_sizes":[],"default_left":[0,0,0,0,0,0,0,0,0,0,0,0,0,0,0,0,0,0,0,0,0,0,0,0,0],"id":40,"left_children":[1,3,5,7,9,11,-1,-1,13,15,17,-1,-1,-1,-1,19,-1,21,-1,23,-1,-1,-1,-1,-1],"loss_changes":[2.2487288E-2,4.1756066E-3,1.4957078E-3,9.014979E-4,5.389842E-4,5.6205317E-5,0E0,0E0,6.558432E-5,4.860363E-5,9.460201E-5,0E0,0E0,0E0,0E0,4.8421207E-6,0E0,7.847993E-6,0E0,2.5441987E-6,0E0,0E0,0E0,0E0,0E0],"parents":[2147483647,0,0,1,1,2,2,3,3,4,4,5,5,8,8,9,9,10,10,15,15,17,17,19,19],"right_children":[2,4,6,8,10,12,-1,-1,14,16,18,-1,-1,-1,-1,20,-1,22,-1,24,-1,-1,-1,-1,-1],"split_conditions":[7.701679E-1,7.1109927E-1,1.1695382E1,1.5405846E1,2.4499425E2,3.6047139E3,1.2729228E-3,-9.792637E-4,2.4495909E2,3.4858926E3,1.5450849E1,5.2382756E-4,1.156143E-4,-1.8333645E-4,-4.960299E-4,4.3798425E2,-4.1278512E-5,1.8162209E1,-4.955979E-5,3.616734E3,-9.011273E-5,5.7095913E-5,1.960961E-4,-2.727331E-4,-8.708804E-5],"split_indices":[25,25,3,11,9,0,0,0,9,1,11,0,0,0,0,12,0,7,0,0,0,0,0,0,0],"split_type":[0,0,0,0,0,0,0,0,0,0,0,0,0,0,0,0,0,0,0,0,0,0,0,0,0],"sum_hessian":[4.1389797E1,2.9971428E1,1.1418367E1,1.3518368E1,1.6453062E1,4.7785716E0,6.639796E0,6.9887753E0,6.5295916E0,1.0435715E1,6.017347E0,3.7785714E0,1E0,2.5591836E0,3.9704082E0,8.757143E0,1.6785715E0,4.265306E0,1.7520409E0,7.0785713E0,1.6785715E0,1.5591837E0,2.7061224E0,5.7765307E0,1.3020408E0],"tree_param":{"num_deleted":"0","num_feature":"26","num_nodes":"25","size_leaf_vector":"1"}},{"base_weights":[2.0588348E-4,-1.0869002E-2,3.619206E-2,-1.6335815E-2,1.3356026E-2,1.1968242E-3,5.4225436E-4,-3.2745402E-2,-1.0264921E-2,1.3214111E-4,4.433246E-4,-1.0330244E-3,-2.659685E-4,-1.9105144E-2,-4.9840086E-3,-5.861407E-4,-1.1526938E-4,1.0510711E-4,-6.273292E-3,-7.0475433E-3,-1.3989627E-7,-8.0503775E-3,-7.013383E-5,-6.5298365E-5,-2.4712292E-4],"categories":[],"categories_nodes":[],"categories_segments":[],"categories_sizes":[],"default_left":[0,0,0,0,0,0,0,0,0,0,0,0,0,0,0,0,0,0,0,0,0,0,0,0,0],"id":41,"left_children":[1,3,5,7,9,-1,-1,11,13,-1,-1,-1,-1,15,17,-1,-1,-1,19,21,-1,23,-1,-1,-1],"loss_changes":[1.7860526E-2,4.7583603E-3,3.3465587E-4,2.495136E-3,7.208332E-5,0E0,0E0,3.4564873E-4,9.4127003E-4,0E0,0E0,0E0,0E0,1.3169507E-4,1.9537137E-4,0E0,0E0,0E0,6.628572E-5,3.5242352E-5,0E0,2.1592074E-5,0E0,0E0,0E0],"parents":[2147483647,0,0,1,1,2,2,3,3,4,4,7,7,8,8,13,13,14,14,18,18,19,19,21,21],"right_children":[2,4,6,8,10,-1,-1,12,14,-1,-1,-1,-1,16,18,-1,-1,-1,20,22,-1,24,-1,-1,-1],"split_conditions":[1.16949835E1,2.2715275E0,2.0452196E2,1.5322703E1,3.4785603E3,1.1968242E-3,5.4225436E-4,9.5748E2,9.610978E2,1.3214111E-4,4.433246E-4,-1.0330244E-3,-2.659685E-4,1.2412735E1,2.0100078E2,-5.861407E-4,-1.1526938E-4,1.0510711E-4,1.1694784E1,3.4892434E3,-1.3989627E-7,1.240643E1,-7.013383E-5,-6.5298365E-5,-2.4712292E-4],"split_indices":[3,10,16,11,1,0,0,6,13,0,0,0,0,2,16,0,0,0,3,1,0,2,0,0,0],"split_type":[0,0,0,0,0,0,0,0,0,0,0,0,0,0,0,0,0,0,0,0,0,0,0,0,0],"sum_hessian":[4.2827553E1,3.3282654E1,9.544898E0,2.7420408E1,5.862245E0,5.7612243E0,3.7836735E0,6.2183676E0,2.1202042E1,1.9540817E0,3.9081633E0,4.7785716E0,1.439796E0,6.95E0,1.4252041E1,5.8408165E0,1.1091837E0,1.5867348E0,1.2665306E1,1.1162245E1,1.5030612E0,8.511225E0,2.6510205E0,1.494898E0,7.0163264E0],"tree_param":{"num_deleted":"0","num_feature":"26","num_nodes":"25","size_leaf_vector":"1"}},{"base_weights":[-1.1808837E-3,-2.3067776E-2,2.1756763E-2,-3.811721E-2,-1.0232722E-2,9.75184E-3,3.753901E-2,-3.3417312E-4,-1.1436559E-3,-1.5253832E-2,-5.9705805E-3,4.479813E-3,1.435058E-2,5.388269E-4,1.1985515E-3,-4.947843E-4,-1.6346377E-4,-6.822301E-3,-3.9360704E-5,-6.980697E-5,1.96234E-4,4.3206225E-4,1.12145426E-4,-7.7553676E-5,-7.6123374E-3,-5.8507812E-5,-2.3844896E-4],"categories":[],"categories_nodes":[],"categories_segments":[],"categories_sizes":[],"default_left":[0,0,0,0,0,0,0,0,0,0,0,0,0,0,0,0,0,0,0,0,0,0,0,0,0,0,0],"id":42,"left_children":[1,3,5,7,9,11,13,-1,-1,15,17,19,21,-1,-1,-1,-1,23,-1,-1,-1,-1,-1,-1,25,-1,-1],"loss_changes":[2.2348035E-2,4.004947E-3,3.7571006E-3,2.342686E-4,2.0097953E-4,2.6813638E-4,4.8325397E-5,0E0,0E0,2.4795532E-5,2.5496556E-5,1.5573461E-4,1.4963676E-5,0E0,0E0,0E0,0E0,2.4345645E-6,0E0,0E0,0E0,0E0,0E0,0E0,1.0032061E-5,0E0,0E0],"parents":[2147483647,0,0,1,1,2,2,3,3,4,4,5,5,6,6,9,9,10,10,11,11,12,12,17,17,24,24],"right_children":[2,4,6,8,10,12,14,-1,-1,16,18,20,22,-1,-1,-1,-1,24,-1,-1,-1,-1,-1,-1,26,-1,-1],"split_conditions":[7.394356E-1,6.7633915E-1,1.1695083E1,1.2408882E1,7.1059626E-1,4.052449E2,8.582799E-1,-3.3417312E-4,-1.1436559E-3,3.4888518E3,3.4858926E3,4.358589E2,9.5684735E2,5.388269E-4,1.1985515E-3,-4.947843E-4,-1.6346377E-4,1.419444E3,-3.9360704E-5,-6.980697E-5,1.96234E-4,4.3206225E-4,1.12145426E-4,-7.7553676E-5,2.3859839E2,-5.8507812E-5,-2.3844896E-4],"split_indices":[25,25,3,2,25,19,25,0,0,1,1,12,6,0,0,0,0,20,0,0,0,0,0,0,9,0,0],"split_type":[0,0,0,0,0,0,0,0,0,0,0,0,0,0,0,0,0,0,0,0,0,0,0,0,0,0,0],"sum_hessian":[4.2515305E1,2.1753061E1,2.0762245E1,9.106122E0,1.2646938E1,1.2711225E1,8.051021E0,1.3663266E0,7.7397957E0,4.622449E0,8.024489E0,6.841837E0,5.8693876E0,2.8397958E0,5.2112246E0,2.9806123E0,1.6418368E0,6.345918E0,1.6785715E0,1.8244898E0,5.017347E0,4.8693876E0,1E0,1.7704082E0,4.57551E0,1.1091837E0,3.4663265E0],"tree_param":{"num_deleted":"0","num_feature":"26","num_nodes":"27","size_leaf_vector":"1"}},{"base_weights":[3.2234343E-4,-1.2055728E-2,3.4434214E-2,-5.5828644E-3,-3.1192487E-2,1.1771595E-3,5.848862E-4,-2.3669741E-5,-6.171351E-4,-2.7147587E-4,-1.1707584E-3,3.3567302E-4,-3.6473263E-3,-6.0635074E-3,1.3010709E-4,-7.4250484E-3,6.951849E-5,-9.383121E-3,-7.780879E-5,-5.7645946E-5,-2.896448E-4],"categories":[],"categories_nodes":[],"categories_segments":[],"categories_sizes":[],"default_left":[0,0,0,0,0,0,0,0,0,0,0,0,0,0,0,0,0,0,0,0,0],"id":43,"left_children":[1,3,5,7,9,-1,-1,11,-1,-1,-1,-1,13,15,-1,17,-1,19,-1,-1,-1],"loss_changes":[1.810695E-2,3.7258542E-3,2.9807072E-4,2.263424E-3,1.3616276E-3,0E0,0E0,8.9241937E-4,0E0,0E0,0E0,0E0,3.437206E-4,1.6537099E-4,0E0,7.529778E-5,0E0,3.0936848E-5,0E0,0E0,0E0],"parents":[2147483647,0,0,1,1,2,2,3,3,4,4,7,7,12,12,13,13,15,15,17,17],"right_children":[2,4,6,8,10,-1,-1,12,-1,-1,-1,-1,14,16,-1,18,-1,20,-1,-1,-1],"split_conditions":[1.16949835E1,1.4244337E3,2.0331258E2,4.372628E2,1.2408532E1,1.1771595E-3,5.848862E-4,1.5310549E1,-6.171351E-4,-2.7147587E-4,-1.1707584E-3,3.3567302E-4,9.7814343E2,1.1694784E1,1.3010709E-4,2.264336E0,6.951849E-5,1.5331808E1,-7.780879E-5,-5.7645946E-5,-2.896448E-4],"split_indices":[3,20,16,12,2,0,0,11,0,0,0,0,5,3,0,10,0,11,0,0,0],"split_type":[0,0,0,0,0,0,0,0,0,0,0,0,0,0,0,0,0,0,0,0,0],"sum_hessian":[4.09E1,3.0484694E1,1.0415306E1,2.3744898E1,6.7397957E0,5.322449E0,5.0928574E0,1.849796E1,5.2469387E0,2.8612244E0,3.8785715E0,3.7520409E0,1.4745918E1,1.1627551E1,3.1183674E0,1.0142858E1,1.4846939E0,6.4183674E0,3.7244897E0,1.1091837E0,5.3091836E0],"tree_param":{"num_deleted":"0","num_feature":"26","num_nodes":"21","size_leaf_vector":"1"}},{"base_weights":[7.122318E-4,-1.0350591E-2,3.4731247E-2,-1.5275462E-2,1.3750558E-2,6.674435E-4,1.3262753E-3,-2.962435E-2,-9.394778E-3,4.4814966E-4,1.6766986E-4,-1.6010553E-4,-1.0047511E-3,-1.6978107E-2,-2.652395E-3,-6.454121E-4,-4.0382543E-3,1.933942E-3,-5.1230425E-3,-1.5777368E-4,1.1373826E-5,1.0164009E-4,-2.9135555E-5,-1.7466609E-4,-6.288979E-5],"categories":[],"categories_nodes":[],"categories_segments":[],"categories_sizes":[],"default_left":[0,0,0,0,0,0,0,0,0,0,0,0,0,0,0,0,0,0,0,0,0,0,0,0,0],"id":44,"left_children":[1,3,5,7,9,-1,-1,11,13,-1,-1,-1,-1,15,17,-1,19,21,23,-1,-1,-1,-1,-1,-1],"loss_changes":[1.5659887E-2,3.942884E-3,2.7580746E-4,1.9651093E-3,6.7602377E-6,0E0,0E0,8.8187214E-4,9.940485E-4,0E0,0E0,0E0,0E0,6.4391736E-4,1.4523484E-4,0E0,3.2148644E-5,2.853341E-5,1.1766839E-5,0E0,0E0,0E0,0E0,0E0,0E0],"parents":[2147483647,0,0,1,1,2,2,3,3,4,4,7,7,8,8,13,13,14,14,16,16,17,17,18,18],"right_children":[2,4,6,8,10,-1,-1,12,14,-1,-1,-1,-1,16,18,-1,20,22,24,-1,-1,-1,-1,-1,-1],"split_conditions":[1.1694933E1,2.2715275E0,1.2423943E1,1.530541E1,1.2500799E1,6.674435E-4,1.3262753E-3,1.4183741E4,2.2283783E0,4.4814966E-4,1.6766986E-4,-1.6010553E-4,-1.0047511E-3,1.2412735E1,2.0162752E2,-6.454121E-4,3.478807E3,3.4876667E3,2.4448116E2,-1.5777368E-4,1.1373826E-5,1.0164009E-4,-2.9135555E-5,-1.7466609E-4,-6.288979E-5],"split_indices":[3,10,2,11,2,0,0,14,10,0,0,0,0,2,16,0,1,1,9,0,0,0,0,0,0],"split_type":[0,0,0,0,0,0,0,0,0,0,0,0,0,0,0,0,0,0,0,0,0,0,0,0,0],"sum_hessian":[3.96551E1,3.044898E1,9.206122E0,2.5586735E1,4.862245E0,6.4938774E0,2.712245E0,6.2642856E0,1.9322449E1,2.9448981E0,1.917347E0,1.6969388E0,4.567347E0,8.379592E0,1.0942857E1,5.1714287E0,3.2081633E0,3.9071429E0,7.035714E0,2.1632652E0,1.044898E0,2.3479593E0,1.5591836E0,4.2285714E0,2.8071427E0],"tree_param":{"num_deleted":"0","num_feature":"26","num_nodes":"25","size_leaf_vector":"1"}},{"base_weights":[-3.0430281E-5,-1.9004513E-2,2.0937571E-2,-9.883393E-4,-1.24520045E-2,9.063003E-3,1.1387288E-3,-1.6646748E-2,-5.820996E-3,5.0067664E-3,4.302274E-4,-1.848705E-2,-1.6217041E-4,-2.2854186E-4,-7.4713134E-5,2.8306045E-4,1.9775754E-4,-1.8404843E-4,-5.6714145E-4,5.0770315E-5,-4.294472E-5],"categories":[],"categories_nodes":[],"categories_segments":[],"categories_sizes":[],"default_left":[0,0,0,0,0,0,0,0,0,0,0,0,0,0,0,0,0,0,0,0,0],"id":45,"left_children":[1,3,5,-1,7,9,-1,11,13,15,-1,17,-1,-1,-1,19,-1,-1,-1,-1,-1],"loss_changes":[1.5569336E-2,1.7536692E-3,3.987263E-3,0E0,3.53595E-4,2.5265582E-4,0E0,8.035824E-5,3.5890844E-5,8.858956E-5,0E0,2.6235823E-5,0E0,0E0,0E0,1.3540769E-5,0E0,0E0,0E0,0E0,0E0],"parents":[2147483647,0,0,1,1,2,2,4,4,5,5,7,7,8,8,9,9,11,11,15,15],"right_children":[2,4,6,-1,8,10,-1,12,14,16,-1,18,-1,-1,-1,20,-1,-1,-1,-1,-1],"split_conditions":[7.343001E-1,6.513616E-1,8.5144186E-1,-9.883393E-4,7.1059626E-1,7.9680216E-1,1.1387288E-3,1.2886019E1,3.478807E3,4.0286874E2,4.302274E-4,1.2407131E1,-1.6217041E-4,-2.2854186E-4,-7.4713134E-5,1.5450849E1,1.9775754E-4,-1.8404843E-4,-5.6714145E-4,5.0770315E-5,-4.294472E-5],"split_indices":[25,25,25,0,25,25,0,2,1,19,0,2,0,0,0,11,0,0,0,0,0],"split_type":[0,0,0,0,0,0,0,0,0,0,0,0,0,0,0,0,0,0,0,0,0],"sum_hessian":[3.7133675E1,1.9542856E1,1.7590816E1,4.3469386E0,1.5195918E1,1.1892858E1,5.6979594E0,8.382653E0,6.8132653E0,8.327551E0,3.5653062E0,6.5663266E0,1.8163266E0,2.9979591E0,3.8153062E0,2.870408E0,5.457143E0,1.4581633E0,5.1081634E0,1.5591837E0,1.3112245E0],"tree_param":{"num_deleted":"0","num_feature":"26","num_nodes":"21","size_leaf_vector":"1"}},{"base_weights":[-1.1324657E-3,-1.5241968E-2,2.9034637E-2,-3.350275E-2,-6.873625E-3,1.9875344E-2,1.2421653E-3,-2.9755762E-4,-1.0181065E-3,-9.28318E-3,1.7146E-3,5.9650367E-4,9.683299E-5,-1.2710083E-2,-5.9203845E-3,1.2813174E-4,-6.891065E-5,-4.0328407E-4,-1.4053509E-4,-7.3650824E-3,-6.316715E-5,-5.9629274E-5,-2.328555E-4],"categories":[],"categories_nodes":[],"categories_segments":[],"categories_sizes":[],"default_left":[0,0,0,0,0,0,0,0,0,0,0,0,0,0,0,0,0,0,0,0,0,0,0],"id":46,"left_children":[1,3,5,7,9,11,-1,-1,-1,13,15,-1,-1,17,19,-1,-1,-1,-1,21,-1,-1,-1],"loss_changes":[1.760985E-2,4.069203E-3,9.7108446E-4,1.7481856E-4,4.412167E-4,1.6251812E-4,0E0,0E0,0E0,1.1149852E-4,7.5152275E-5,0E0,0E0,2.0857435E-5,3.6594458E-5,0E0,0E0,0E0,0E0,1.5990197E-5,0E0,0E0,0E0],"parents":[2147483647,0,0,1,1,2,2,3,3,4,4,5,5,9,9,10,10,13,13,14,14,19,19],"right_children":[2,4,6,8,10,12,-1,-1,-1,14,16,-1,-1,18,20,-1,-1,-1,-1,22,-1,-1,-1],"split_conditions":[7.8013444E-1,6.7495775E-1,8.7366956E-1,1.2408882E1,7.394356E-1,9.568377E2,1.2421653E-3,-2.9755762E-4,-1.0181065E-3,7.1109927E-1,1.5450849E1,5.9650367E-4,9.683299E-5,1.2840807E1,1.4220415E3,1.2813174E-4,-6.891065E-5,-4.0328407E-4,-1.4053509E-4,1.5335129E1,-6.316715E-5,-5.9629274E-5,-2.328555E-4],"split_indices":[25,25,25,2,25,6,0,0,0,25,11,0,0,2,20,0,0,0,0,11,0,0,0],"split_type":[0,0,0,0,0,0,0,0,0,0,0,0,0,0,0,0,0,0,0,0,0,0,0],"sum_hessian":[3.9332653E1,2.7135714E1,1.21969385E1,7.5836735E0,1.955204E1,9.072449E0,3.1244898E0,1.3663266E0,6.217347E0,1.5205102E1,4.3469386E0,8.072449E0,1E0,6.154082E0,9.051021E0,2.522449E0,1.8244898E0,4.3285713E0,1.8255103E0,5.767347E0,3.2836735E0,1.3846939E0,4.382653E0],"tree_param":{"num_deleted":"0","num_feature":"26","num_nodes":"23","size_leaf_vector":"1"}},{"base_weights":[-8.585941E-4,-1.8691402E-2,2.0430034E-2,-9.522652E-4,-1.1236976E-2,1.1165061E-2,1.0574106E-3,-1.5446584E-2,-6.4546005E-3,4.2451066E-3,1.503862E-2,-5.5172667E-4,-2.3582026E-4,-7.411438E-3,-3.088192E-5,1.8587841E-4,-1.5655949E-5,4.63623E-4,1.2536571E-4,-8.3600385E-3,-6.560281E-5,-8.379595E-5,-2.57846E-4],"categories":[],"categories_nodes":[],"categories_segments":[],"categories_sizes":[],"default_left":[0,0,0,0,0,0,0,0,0,0,0,0,0,0,0,0,0,0,0,0,0,0,0],"id":47,"left_children":[1,3,5,-1,7,9,-1,11,13,15,17,-1,-1,19,-1,-1,-1,-1,-1,21,-1,-1,-1],"loss_changes":[1.6627189E-2,2.3364285E-3,2.7878303E-3,0E0,2.5277142E-4,3.2329792E-4,0E0,9.108521E-5,4.259369E-5,7.9332254E-5,6.813533E-5,0E0,0E0,2.0009757E-5,0E0,0E0,0E0,0E0,0E0,2.2700115E-6,0E0,0E0,0E0],"parents":[2147483647,0,0,1,1,2,2,4,4,5,5,7,7,8,8,9,9,10,10,13,13,19,19],"right_children":[2,4,6,-1,8,10,-1,12,14,16,18,-1,-1,20,-1,-1,-1,-1,-1,22,-1,-1,-1],"split_conditions":[7.394356E-1,6.554532E-1,8.582799E-1,-9.522652E-4,7.1109927E-1,7.8013444E-1,1.0574106E-3,3.4867747E3,3.4858926E3,1.5413431E1,3.6091692E3,-5.5172667E-4,-2.3582026E-4,3.616734E3,-3.088192E-5,1.8587841E-4,-1.5655949E-5,4.63623E-4,1.2536571E-4,7.1953195E-1,-6.560281E-5,-8.379595E-5,-2.57846E-4],"split_indices":[25,25,25,0,25,25,0,1,1,11,0,0,0,0,0,0,0,0,0,25,0,0,0],"split_type":[0,0,0,0,0,0,0,0,0,0,0,0,0,0,0,0,0,0,0,0,0,0,0],"sum_hessian":[4.1791836E1,2.2808163E1,1.8983673E1,6.3E0,1.6508163E1,1.3442857E1,5.5408163E0,7.593878E0,8.914286E0,5.5765305E0,7.8663263E0,3.6040816E0,3.989796E0,7.2357144E0,1.6785715E0,3.467347E0,2.1091838E0,6.3806124E0,1.4857143E0,5.5479593E0,1.6877551E0,1.3755102E0,4.172449E0],"tree_param":{"num_deleted":"0","num_feature":"26","num_nodes":"23","size_leaf_vector":"1"}},{"base_weights":[-1.9107786E-3,-1.7634833E-2,1.9965893E-2,-3.021488E-2,-9.9298265E-3,8.272492E-3,3.1407032E-2,-3.3873335E-2,-2.331443E-4,-4.1130872E-4,-5.413305E-3,2.115957E-5,2.933091E-4,5.559758E-4,1.1185372E-3,-1.0303552E-3,-3.3976865E-4,-6.935414E-3,-6.491273E-5,-7.094983E-5,-2.1697367E-4],"categories":[],"categories_nodes":[],"categories_segments":[],"categories_sizes":[],"default_left":[0,0,0,0,0,0,0,0,0,0,0,0,0,0,0,0,0,0,0,0,0],"id":48,"left_children":[1,3,5,7,9,11,13,15,-1,-1,17,-1,-1,-1,-1,-1,-1,19,-1,-1,-1],"loss_changes":[1.4504124E-2,2.0715753E-3,2.1046456E-3,4.2295828E-4,2.7870084E-4,1.5928812E-4,5.2775256E-5,1.2398697E-5,0E0,0E0,3.1660486E-5,0E0,0E0,0E0,0E0,0E0,0E0,2.8934737E-6,0E0,0E0,0E0],"parents":[2147483647,0,0,1,1,2,2,3,3,4,4,5,5,6,6,7,7,10,10,17,17],"right_children":[2,4,6,8,10,12,14,16,-1,-1,18,-1,-1,-1,-1,-1,-1,20,-1,-1,-1],"split_conditions":[7.394356E-1,6.7633915E-1,1.1695033E1,3.6300574E3,7.1109927E-1,9.616562E2,8.7366956E-1,9.8080426E2,-2.331443E-4,-4.1130872E-4,1.4220415E3,2.115957E-5,2.933091E-4,5.559758E-4,1.1185372E-3,-1.0303552E-3,-3.3976865E-4,7.1953195E-1,-6.491273E-5,-7.094983E-5,-2.1697367E-4],"split_indices":[25,25,3,0,25,13,25,5,0,0,20,0,0,0,0,0,0,25,0,0,0],"split_type":[0,0,0,0,0,0,0,0,0,0,0,0,0,0,0,0,0,0,0,0,0],"sum_hessian":[4.0140816E1,2.3467346E1,1.667347E1,7.804082E0,1.5663265E1,9.0979595E0,7.57551E0,6.217347E0,1.5867348E0,6.5295916E0,9.133674E0,2.3663266E0,6.7316327E0,4.6336737E0,2.9418368E0,4.8693876E0,1.3479592E0,5.2908163E0,3.8428571E0,1.4673469E0,3.8234694E0],"tree_param":{"num_deleted":"0","num_feature":"26","num_nodes":"21","size_leaf_vector":"1"}},{"base_weights":[3.153177E-4,-1.3983854E-2,2.2264268E-2,-2.7926689E-2,-4.838238E-3,1.2970104E-2,9.7479747E-4,-8.833647E-4,-2.8265483E-4,-2.6186612E-3,-3.4380483E-4,4.953048E-3,1.6133903E-2,-4.199072E-3,1.647713E-3,-2.2100135E-6,1.9125637E-4,1.3389399E-4,5.0095347E-4,-5.168514E-3,-6.3559826E-5,1.0486706E-4,-6.197251E-5,-6.1127634E-5,-1.6827046E-4],"categories":[],"categories_nodes":[],"categories_segments":[],"categories_sizes":[],"default_left":[0,0,0,0,0,0,0,0,0,0,0,0,0,0,0,0,0,0,0,0,0,0,0,0,0],"id":49,"left_children":[1,3,5,7,9,11,-1,-1,-1,13,-1,15,17,19,21,-1,-1,-1,-1,23,-1,-1,-1,-1,-1],"loss_changes":[1.4391116E-2,3.4070923E-3,1.6576359E-3,3.7867576E-4,2.6485932E-4,2.2402033E-4,0E0,0E0,0E0,1.0889074E-4,0E0,4.620634E-5,7.700734E-5,9.432391E-6,4.7212405E-5,0E0,0E0,0E0,0E0,3.827765E-6,0E0,0E0,0E0,0E0,0E0],"parents":[2147483647,0,0,1,1,2,2,3,3,4,4,5,5,9,9,11,11,12,12,13,13,14,14,19,19],"right_children":[2,4,6,8,10,12,-1,-1,-1,14,-1,16,18,20,22,-1,-1,-1,-1,24,-1,-1,-1,-1,-1],"split_conditions":[7.578612E-1,6.9851327E-1,8.582799E-1,3.6218975E3,4.0707663E2,7.8013444E-1,9.7479747E-4,-8.833647E-4,-2.8265483E-4,7.394356E-1,-3.4380483E-4,9.663784E1,1.7473055E1,1.7965908E1,1.5413431E1,-2.2100135E-6,1.9125637E-4,1.3389399E-4,5.0095347E-4,4.1534065E1,-6.3559826E-5,1.0486706E-4,-6.197251E-5,-6.1127634E-5,-1.6827046E-4],"split_indices":[25,25,25,0,19,25,0,0,0,25,0,4,7,7,11,0,0,0,0,24,0,0,0,0,0],"split_type":[0,0,0,0,0,0,0,0,0,0,0,0,0,0,0,0,0,0,0,0,0,0,0,0,0],"sum_hessian":[4.3861225E1,2.6778572E1,1.7082653E1,9.793878E0,1.6984694E1,1.0982653E1,6.1E0,7.5010204E0,2.2928572E0,1.4123469E1,2.8612244E0,3.8336735E0,7.1489797E0,1.0317347E1,3.8061225E0,1.3020408E0,2.5316327E0,1.4571428E0,5.691837E0,5.7489796E0,4.5683675E0,2.4857144E0,1.3204081E0,2.0540817E0,3.694898E0],"tree_param":{"num_deleted":"0","num_feature":"26","num_nodes":"25","size_leaf_vector":"1"}},{"base_weights":[2.0791558E-4,-1.1078291E-2,2.8528715E-2,-8.686096E-4,-4.381576E-3,5.354397E-4,1.148335E-3,-8.45171E-3,3.7115365E-3,-3.4604824E-4,-5.7137883E-3,1.6113865E-4,-2.900318E-4,-6.630138E-3,-5.4413395E-5,-6.830116E-5,6.986725E-5,-6.881799E-5,-2.0220909E-4],"categories":[],"categories_nodes":[],"categories_segments":[],"categories_sizes":[],"default_left":[0,0,0,0,0,0,0,0,0,0,0,0,0,0,0,0,0,0,0],"id":50,"left_children":[1,3,5,-1,7,-1,-1,9,11,-1,13,-1,15,17,-1,-1,-1,-1,-1],"loss_changes":[1.4719492E-2,4.2636488E-3,7.5627863E-4,0E0,8.820626E-4,0E0,0E0,1.1647004E-4,7.801436E-5,0E0,2.9069663E-5,0E0,3.0679912E-5,5.34032E-6,0E0,0E0,0E0,0E0,0E0],"parents":[2147483647,0,0,1,1,2,2,4,4,7,7,8,8,10,10,12,12,13,13],"right_children":[2,4,6,-1,8,-1,-1,10,12,-1,14,-1,16,18,-1,-1,-1,-1,-1],"split_conditions":[7.9680216E-1,6.7633915E-1,8.6901355E-1,-8.686096E-4,7.394356E-1,5.354397E-4,1.148335E-3,1.2412735E1,1.5413431E1,-3.4604824E-4,2.264336E0,1.6113865E-4,1.4223418E4,1.2413786E1,-5.4413395E-5,-6.830116E-5,6.986725E-5,-6.881799E-5,-2.0220909E-4],"split_indices":[25,25,25,0,25,0,0,2,11,0,10,0,14,2,0,0,0,0,0],"split_type":[0,0,0,0,0,0,0,0,0,0,0,0,0,0,0,0,0,0,0],"sum_hessian":[4.4062244E1,3.1941837E1,1.2120408E1,7.1163263E0,2.482551E1,8.356123E0,3.7642856E0,1.6488775E1,8.336735E0,5.345918E0,1.1142857E1,5.2285714E0,3.1081634E0,8.354081E0,2.7887754E0,1.8244898E0,1.2836735E0,1.677551E0,6.6765304E0],"tree_param":{"num_deleted":"0","num_feature":"26","num_nodes":"19","size_leaf_vector":"1"}},{"base_weights":[-1.2882511E-3,-9.72439E-3,2.8931959E-2,-2.6005428E-2,-3.6512648E-3,5.5707386E-4,1.1281167E-3,-3.1495847E-2,-1.2292231E-4,-1.3149084E-2,1.7624041E-3,-3.419701E-4,-1.0092069E-3,-5.8582216E-4,-4.5880084E-3,-1.4336691E-3,1.15625905E-2,-1.9125469E-4,4.7452206E-5,2.969503E-3,-4.3589864E-3,3.6537758E-4,8.0346465E-5,-2.406494E-6,1.4077518E-4,-6.546889E-3,-1.2789133E-3,-4.4583565E-5,-2.2411766E-4,-5.1326115E-5,1.0814538E-8],"categories":[],"categories_nodes":[],"categories_segments":[],"categories_sizes":[],"default_left":[0,0,0,0,0,0,0,0,0,0,0,0,0,0,0,0,0,0,0,0,0,0,0,0,0,0,0,0,0,0,0],"id":51,"left_children":[1,3,5,7,9,-1,-1,11,-1,13,15,-1,-1,-1,17,19,21,-1,-1,23,25,-1,-1,-1,-1,27,29,-1,-1,-1,-1],"loss_changes":[1.263744E-2,3.7254249E-3,3.098091E-4,1.0881028E-3,1.5299326E-3,0E0,0E0,2.6815012E-4,0E0,6.198577E-4,6.2882836E-4,0E0,0E0,0E0,1.0174619E-4,2.1426374E-4,2.6102876E-5,0E0,0E0,4.340683E-5,5.764079E-5,0E0,0E0,0E0,0E0,2.6856971E-5,3.7660438E-6,0E0,0E0,0E0,0E0],"parents":[2147483647,0,0,1,1,2,2,3,3,4,4,7,7,9,9,10,10,14,14,15,15,16,16,19,19,20,20,25,25,26,26],"right_children":[2,4,6,8,10,-1,-1,12,-1,14,16,-1,-1,-1,18,20,22,-1,-1,24,26,-1,-1,-1,-1,28,30,-1,-1,-1,-1],"split_conditions":[1.16949835E1,9.608297E2,1.24242935E1,1.2412035E1,2.43407E2,5.5707386E-4,1.1281167E-3,1.2409232E1,-1.2292231E-4,1.5303595E1,2.2733254E0,-3.419701E-4,-1.0092069E-3,-5.8582216E-4,1.1694834E1,3.4803196E3,3.611951E3,-1.9125469E-4,4.7452206E-5,9.7814343E2,1.7965908E1,3.6537758E-4,8.0346465E-5,-2.406494E-6,1.4077518E-4,1.240643E1,9.78E2,-4.4583565E-5,-2.2411766E-4,-5.1326115E-5,1.0814538E-8],"split_indices":[3,13,2,2,9,0,0,2,0,11,10,0,0,0,3,1,0,0,0,5,7,0,0,0,0,2,5,0,0,0,0],"split_type":[0,0,0,0,0,0,0,0,0,0,0,0,0,0,0,0,0,0,0,0,0,0,0,0,0,0,0,0,0,0,0],"sum_hessian":[4.7466328E1,3.7637756E1,9.828571E0,9.3336735E0,2.8304081E1,7.0061226E0,2.822449E0,7.0785713E0,2.2551022E0,9.757143E0,1.8546938E1,2.0540817E0,5.02449E0,4.357143E0,5.4E0,1.4629592E1,3.917347E0,3.915306E0,1.4846939E0,5.8336735E0,8.795918E0,2.917347E0,1E0,2.7336736E0,3.1E0,4.484694E0,4.3112245E0,1.494898E0,2.989796E0,2.7061224E0,1.6051021E0],"tree_param":{"num_deleted":"0","num_feature":"26","num_nodes":"31","size_leaf_vector":"1"}},{"base_weights":[-6.7899105E-5,-8.408352E-3,2.8392578E-2,-4.6828375E-4,-1.8588392E-2,3.409519E-4,9.118856E-4,-5.0762873E-3,1.17573235E-2,-2.9214602E-2,-5.8841426E-3,1.1190647E-4,-6.996858E-3,7.922161E-5,3.6399649E-4,-2.949189E-4,-9.501959E-4,-1.3496131E-3,-8.818848E-3,9.2139795E-5,-8.6363545E-3,1.3954496E-5,-6.732907E-5,-2.869674E-4,-6.23471E-5,-9.630469E-3,-4.7652946E-5,-4.3835567E-5,-1.0864369E-2,-3.3524825E-4,-7.599095E-5],"categories":[],"categories_nodes":[],"categories_segments":[],"categories_sizes":[],"default_left":[0,0,0,0,0,0,0,0,0,0,0,0,0,0,0,0,0,0,0,0,0,0,0,0,0,0,0,0,0,0,0],"id":52,"left_children":[1,3,5,7,9,-1,-1,11,13,15,17,-1,19,-1,-1,-1,-1,21,23,-1,25,-1,-1,-1,-1,27,-1,-1,29,-1,-1],"loss_changes":[1.0631325E-2,2.7904948E-3,2.9062293E-4,1.2135295E-3,1.8731798E-3,0E0,0E0,2.993354E-4,2.8760871E-5,3.478611E-4,9.658132E-5,0E0,2.5133195E-4,0E0,0E0,0E0,0E0,9.7448965E-6,2.2129127E-5,0E0,6.409688E-5,0E0,0E0,0E0,0E0,8.2473794E-5,0E0,0E0,4.4338405E-5,0E0,0E0],"parents":[2147483647,0,0,1,1,2,2,3,3,4,4,7,7,8,8,9,9,10,10,12,12,17,17,18,18,20,20,25,25,28,28],"right_children":[2,4,6,8,10,-1,-1,12,14,16,18,-1,20,-1,-1,-1,-1,22,24,-1,26,-1,-1,-1,-1,28,-1,-1,30,-1,-1],"split_conditions":[1.16949835E1,2.040738E2,1.241904E1,4.999987E0,3.622465E2,3.409519E-4,9.118856E-4,2.0100078E2,1.250045E1,1.2408882E1,9.67583E1,1.1190647E-4,4.008384E2,7.922161E-5,3.6399649E-4,-2.949189E-4,-9.501959E-4,9.558931E1,9.890418E1,9.2139795E-5,4.3798425E2,1.3954496E-5,-6.732907E-5,-2.869674E-4,-6.23471E-5,1.240643E1,-4.7652946E-5,-4.3835567E-5,1.5512661E1,-3.3524825E-4,-7.599095E-5],"split_indices":[3,16,2,8,17,0,0,16,2,2,4,0,19,0,0,0,0,4,4,0,12,0,0,0,0,2,0,0,11,0,0],"split_type":[0,0,0,0,0,0,0,0,0,0,0,0,0,0,0,0,0,0,0,0,0,0,0,0,0,0,0,0,0,0,0],"sum_hessian":[4.278163E1,3.363061E1,9.15102E0,1.9481632E1,1.4148979E1,2.6755102E0,6.47551E0,1.4573469E1,4.908163E0,6.9969387E0,7.152041E0,2.357143E0,1.2216327E1,1E0,3.9081633E0,2.0632653E0,4.9336734E0,3.3836734E0,3.7683673E0,1.5408163E0,1.067551E1,1.4214286E0,1.9622449E0,2.6408162E0,1.1275511E0,8.996939E0,1.6785715E0,1.494898E0,7.502041E0,6.1908164E0,1.3112245E0],"tree_param":{"num_deleted":"0","num_feature":"26","num_nodes":"31","size_leaf_vector":"1"}},{"base_weights":[-1.942042E-3,-1.2630513E-2,2.1299647E-2,-3.1512138E-2,-6.3599087E-3,1.2619941E-2,8.345256E-4,-1.0414531E-3,-3.7278395E-4,-9.282217E-3,3.8317646E-4,1.3564582E-2,7.811261E-5,-6.1327745E-3,-3.9764302E-4,2.5188334E-3,-7.026236E-5,1.2292783E-4,4.2173412E-4,-6.8322965E-3,-4.355958E-5,1.03134174E-4,-2.894287E-7,-8.224012E-5,-2.1402027E-4],"categories":[],"categories_nodes":[],"categories_segments":[],"categories_sizes":[],"default_left":[0,0,0,0,0,0,0,0,0,0,0,0,0,0,0,0,0,0,0,0,0,0,0,0,0],"id":53,"left_children":[1,3,5,7,9,11,-1,-1,-1,13,15,17,-1,19,-1,21,-1,-1,-1,23,-1,-1,-1,-1,-1],"loss_changes":[1.0681041E-2,3.2731527E-3,6.2600663E-4,2.3503415E-4,4.6222954E-4,4.0653627E-5,0E0,0E0,0E0,1.6511092E-4,5.5727975E-5,3.625767E-5,0E0,2.6782684E-5,0E0,1.5059071E-5,0E0,0E0,0E0,8.647359E-6,0E0,0E0,0E0,0E0,0E0],"parents":[2147483647,0,0,1,1,2,2,3,3,4,4,5,5,9,9,10,10,11,11,13,13,15,15,19,19],"right_children":[2,4,6,8,10,12,-1,-1,-1,14,16,18,-1,20,-1,22,-1,-1,-1,24,-1,-1,-1,-1,-1],"split_conditions":[7.8013444E-1,6.554532E-1,8.50357E-1,9.658076E1,7.3052436E-1,1.8199312E1,8.345256E-4,-1.0414531E-3,-3.7278395E-4,2.4495909E2,3.633231E2,1.2416588E1,7.811261E-5,3.4892434E3,-3.9764302E-4,3.477467E3,-7.026236E-5,1.2292783E-4,4.2173412E-4,1.418176E4,-4.355958E-5,1.03134174E-4,-2.894287E-7,-8.224012E-5,-2.1402027E-4],"split_indices":[25,25,25,4,25,7,0,0,0,9,17,2,0,1,0,1,0,0,0,14,0,0,0,0,0],"split_type":[0,0,0,0,0,0,0,0,0,0,0,0,0,0,0,0,0,0,0,0,0,0,0,0,0],"sum_hessian":[4.0913265E1,2.8337755E1,1.257551E1,6.0612245E0,2.2276531E1,7.453061E0,5.122449E0,3.8234694E0,2.237755E0,1.5278571E1,6.997959E0,6.453061E0,1E0,1.0684694E1,4.593878E0,4.1E0,2.8979592E0,1.4571428E0,4.9959183E0,8.8408165E0,1.8438776E0,2.494898E0,1.6051021E0,2.320408E0,6.520408E0],"tree_param":{"num_deleted":"0","num_feature":"26","num_nodes":"25","size_leaf_vector":"1"}},{"base_weights":[-1.5472018E-3,-1.4772319E-2,2.013732E-2,-2.7110495E-2,-7.67839E-3,3.181451E-2,1.0339514E-2,-3.104541E-2,-3.099551E-4,-1.0168322E-2,-2.4870597E-3,4.109572E-4,1.0179753E-3,3.6722582E-4,1.338125E-4,-9.4291096E-4,-2.9898895E-4,-1.1431067E-2,-1.0706653E-4,-1.3703736E-4,1.9741972E-4,-8.790116E-5,-1.25089465E-2,4.7355654E-5,-3.7042606E-5,-1.4338823E-4,-3.9144358E-4],"categories":[],"categories_nodes":[],"categories_segments":[],"categories_sizes":[],"default_left":[0,0,0,0,0,0,0,0,0,0,0,0,0,0,0,0,0,0,0,0,0,0,0,0,0,0,0],"id":54,"left_children":[1,3,5,7,9,11,13,15,-1,17,19,-1,-1,-1,-1,-1,-1,21,-1,-1,23,-1,25,-1,-1,-1,-1],"loss_changes":[1.2813681E-2,2.2151484E-3,1.6111345E-3,2.6935712E-4,2.1997618E-4,3.1092204E-5,1.02499966E-4,2.8484035E-5,0E0,5.6433724E-5,4.9265574E-5,0E0,0E0,0E0,0E0,0E0,0E0,4.941225E-5,0E0,0E0,1.2446327E-5,0E0,2.0206207E-5,0E0,0E0,0E0,0E0],"parents":[2147483647,0,0,1,1,2,2,3,3,4,4,5,5,6,6,7,7,9,9,10,10,17,17,20,20,22,22],"right_children":[2,4,6,8,10,12,14,16,-1,18,20,-1,-1,-1,-1,-1,-1,22,-1,-1,24,-1,26,-1,-1,-1,-1],"split_conditions":[7.513548E-1,6.7633915E-1,9.605166E2,3.4867747E3,7.230555E-1,1.5403547E0,9.5684735E2,1.5425391E1,-3.099551E-4,1.289206E1,1.4230203E3,4.109572E-4,1.0179753E-3,3.6722582E-4,1.338125E-4,-9.4291096E-4,-2.9898895E-4,1.2406781E1,-1.0706653E-4,-1.3703736E-4,1.2743824E1,-8.790116E-5,2.4045753E2,4.7355654E-5,-3.7042606E-5,-1.4338823E-4,-3.9144358E-4],"split_indices":[25,25,13,1,25,10,6,11,0,2,20,0,0,0,0,0,0,2,0,0,2,0,9,0,0,0,0],"split_type":[0,0,0,0,0,0,0,0,0,0,0,0,0,0,0,0,0,0,0,0,0,0,0,0,0,0,0],"sum_hessian":[4.264388E1,2.6686735E1,1.5957143E1,8.712245E0,1.797449E1,6.255102E0,9.702041E0,6.244898E0,2.467347E0,1.15E1,6.4744897E0,2.1969388E0,4.058163E0,5.565306E0,4.136735E0,4.9520407E0,1.2928572E0,8.922449E0,2.577551E0,2.9795918E0,3.4948978E0,1.4765306E0,7.445918E0,1.7061224E0,1.7887754E0,1.9806123E0,5.4653063E0],"tree_param":{"num_deleted":"0","num_feature":"26","num_nodes":"27","size_leaf_vector":"1"}},{"base_weights":[-1.0805856E-3,-8.25787E-3,2.4256034E-2,-1.2224942E-2,1.0149921E-2,7.221984E-4,2.286853E-4,-2.35086E-2,-7.6205754E-3,9.362647E-5,3.409941E-4,-8.310276E-4,-1.1711086E-2,-1.347026E-2,-2.6155927E-3,-4.0648042E-4,-1.2614898E-4,-2.9364116E-3,-4.666341E-4,-5.4103625E-3,1.7475424E-3,-9.82541E-5,-2.175361E-5,-6.909284E-5,-1.8747314E-4,3.6294595E-3,-4.3390548E-5,1.242E-4,3.9339862E-5],"categories":[],"categories_nodes":[],"categories_segments":[],"categories_sizes":[],"default_left":[0,0,0,0,0,0,0,0,0,0,0,0,0,0,0,0,0,0,0,0,0,0,0,0,0,0,0,0,0],"id":55,"left_children":[1,3,5,7,9,-1,-1,11,13,-1,-1,-1,15,17,19,-1,-1,21,-1,23,25,-1,-1,-1,-1,27,-1,-1,-1],"loss_changes":[8.33912E-3,2.725413E-3,3.9892737E-5,1.3670162E-3,5.4016826E-5,0E0,0E0,2.453844E-4,6.2688836E-4,0E0,0E0,0E0,2.4553447E-5,2.9393064E-4,1.7320226E-4,0E0,0E0,1.7068123E-6,0E0,1.5356956E-5,4.2848504E-5,0E0,0E0,0E0,0E0,1.1540724E-6,0E0,0E0,0E0],"parents":[2147483647,0,0,1,1,2,2,3,3,4,4,7,7,8,8,12,12,13,13,14,14,17,17,19,19,20,20,25,25],"right_children":[2,4,6,8,10,-1,-1,12,14,-1,-1,-1,16,18,20,-1,-1,22,-1,24,26,-1,-1,-1,-1,28,-1,-1,-1],"split_conditions":[1.1694933E1,2.2715275E0,2.0563968E2,1.5322703E1,3.4785603E3,7.221984E-4,2.286853E-4,1.812952E1,2.2283783E0,9.362647E-5,3.409941E-4,-8.310276E-4,9.768352E2,3.5946624E3,2.4499425E2,-4.0648042E-4,-1.2614898E-4,4.2935797E2,-4.666341E-4,1.4199049E4,3.6176687E3,-9.82541E-5,-2.175361E-5,-6.909284E-5,-1.8747314E-4,2.4514413E2,-4.3390548E-5,1.242E-4,3.9339862E-5],"split_indices":[3,10,16,11,1,0,0,7,10,0,0,0,5,0,9,0,0,12,0,14,0,0,0,0,0,9,0,0,0],"split_type":[0,0,0,0,0,0,0,0,0,0,0,0,0,0,0,0,0,0,0,0,0,0,0,0,0,0,0,0,0],"sum_hessian":[4.3756123E1,3.4622448E1,9.133674E0,2.8760204E1,5.862245E0,7.7867346E0,1.3469387E0,7.144898E0,2.1615307E1,1.9540817E0,3.9081633E0,3.6959183E0,3.4489796E0,9.186735E0,1.2428572E1,1.7520409E0,1.6969388E0,2.584694E0,6.602041E0,7.4295917E0,4.9989796E0,1.5489795E0,1.0357143E0,3.1459184E0,4.2836733E0,3.1183674E0,1.8806123E0,1.5591836E0,1.5591837E0],"tree_param":{"num_deleted":"0","num_feature":"26","num_nodes":"29","size_leaf_vector":"1"}},{"base_weights":[-2.6379912E-5,-1.274905E-2,1.9513426E-2,-2.6153874E-2,-7.334362E-3,1.3016883E-2,1.0141535E-3,-8.486154E-4,-3.4734033E-4,-9.061868E-3,1.223732E-3,7.672355E-5,1.4395896E-2,-3.6635126E-3,-1.1189878E-2,9.971111E-5,-5.7345744E-5,4.442321E-4,1.3786409E-4,-1.3099289E-4,-4.3039832E-5,-1.1011872E-4,-3.3990672E-4],"categories":[],"categories_nodes":[],"categories_segments":[],"categories_sizes":[],"default_left":[0,0,0,0,0,0,0,0,0,0,0,0,0,0,0,0,0,0,0,0,0,0,0],"id":56,"left_children":[1,3,5,7,9,11,-1,-1,-1,13,15,-1,17,19,21,-1,-1,-1,-1,-1,-1,-1,-1],"loss_changes":[1.0055228E-2,1.5861634E-3,1.2597507E-3,4.282221E-6,2.8958963E-4,1.454372E-4,0E0,0E0,0E0,1.4043029E-4,3.822643E-5,0E0,7.872144E-5,5.652437E-6,2.6968657E-5,0E0,0E0,0E0,0E0,0E0,0E0,0E0,0E0],"parents":[2147483647,0,0,1,1,2,2,3,3,4,4,5,5,9,9,10,10,12,12,13,13,14,14],"right_children":[2,4,6,8,10,12,-1,-1,-1,14,16,-1,18,20,22,-1,-1,-1,-1,-1,-1,-1,-1],"split_conditions":[7.578612E-1,6.554532E-1,8.7366956E-1,3.4811804E3,7.394356E-1,3.4654414E3,1.0141535E-3,-8.486154E-4,-3.4734033E-4,9.190142E2,1.5413431E1,7.672355E-5,1.8199312E1,1.4196257E3,1.4194788E3,9.971111E-5,-5.7345744E-5,4.442321E-4,1.3786409E-4,-1.3099289E-4,-4.3039832E-5,-1.1011872E-4,-3.3990672E-4],"split_indices":[25,25,25,1,25,1,0,0,0,23,11,0,7,20,20,0,0,0,0,0,0,0,0],"split_type":[0,0,0,0,0,0,0,0,0,0,0,0,0,0,0,0,0,0,0,0,0,0,0],"sum_hessian":[3.8446938E1,2.3495918E1,1.495102E1,5.658163E0,1.7837755E1,1.2045918E1,2.905102E0,3.4204082E0,2.237755E0,1.4792857E1,3.044898E0,1.7785714E0,1.0267347E1,4.9520407E0,9.8408165E0,1.7244898E0,